2838 100
, -0.18622899 0.47000504 1.1417996 0.04112374 -0.32537302 0.22948496 0.369896 0.1790338 0.12975962 1.1879636 -0.40319625 0.4639555 -0.12636305 0.09248128 -0.33794114 -0.7407381 -0.5858316 1.178241 0.08327434 0.823184 0.02641302 -0.30552942 0.094503045 -0.86591053 -0.3471764 -0.05965481 0.97782737 -0.5939464 -0.17976749 0.30967075 -0.4742139 0.2915169 -0.5742295 -0.10770277 0.0933042 -0.43303782 -0.7696005 0.19171536 0.09672712 0.7643881 0.3602086 0.16518784 -0.12858821 -0.48009637 -0.57004285 0.70157343 -0.5537931 -0.63843375 -0.004684958 0.2824182 -0.17546636 -0.09829361 0.47438937 -0.15432896 -0.8881485 0.45279485 -0.049156915 -0.6821834 0.11862587 -0.025276568 0.13816708 0.31149095 0.36620754 -0.331048 0.26360366 0.3047227 0.0956662 0.53427035 -0.8115126 -0.734299 0.22967976 0.22260527 -0.73142993 0.04995005 1.1205366 0.66297734 0.017167328 0.20236054 0.24465817 -0.24657668 0.07936253 0.93231505 0.23130879 0.8717685 0.63531584 0.41223404 -0.24931715 -0.6329821 0.5101174 -0.11701253 0.12568377 1.0655289 0.38077107 0.5231702 -0.3253564 0.65992135 0.5745579 -0.6155982 0.15463452 0.4126242
the -0.14649093 0.3780925 0.89938474 0.03437476 -0.2600271 0.18065679 0.29646322 0.14484479 0.106639646 0.9391894 -0.31803232 0.36734748 -0.101024404 0.074108966 -0.26321748 -0.58450675 -0.46230188 0.9360955 0.07090887 0.64609843 0.02170529 -0.24005571 0.07722058 -0.6884478 -0.27434394 -0.04091771 0.77658314 -0.4619033 -0.14819315 0.24951157 -0.38188428 0.22853498 -0.45545703 -0.07975402 0.06586704 -0.3438952 -0.61368805 0.15236446 0.082203664 0.6038585 0.2859603 0.13522328 -0.105367705 -0.37965086 -0.45152736 0.5511263 -0.44280988 -0.50894535 -0.00825397 0.2287434 -0.13734882 -0.079463705 0.37738928 -0.12484529 -0.7047301 0.36020997 -0.048285283 -0.53417 0.09780145 -0.028056059 0.10992975 0.24406107 0.2917904 -0.26256558 0.21658373 0.244274 0.07554162 0.4207925 -0.6485458 -0.58596635 0.179122 0.1795263 -0.58240724 0.04434504 0.8805248 0.53149676 0.016709004 0.15516552 0.19661805 -0.2012886 0.06256236 0.73666656 0.17433782 0.681373 0.49937123 0.32519352 -0.20129931 -0.49614176 0.4022356 -0.09951124 0.09403811 0.8491904 0.30011156 0.41020405 -0.26442707 0.51977795 0.45250046 -0.48737556 0.11893158 0.3257533
. -0.10058282 0.26095712 0.6303039 0.01812709 -0.18260664 0.12645486 0.20592703 0.09400382 0.07107194 0.6515899 -0.22656564 0.25628018 -0.06581463 0.049619824 -0.18960248 -0.41005188 -0.32498154 0.64828163 0.048458617 0.45542175 0.012516967 -0.1708925 0.050273746 -0.4765966 -0.19093712 -0.02622434 0.5442539 -0.3258647 -0.09906108 0.16912957 -0.26685858 0.15899144 -0.31964797 -0.054749146 0.045306515 -0.2423429 -0.42502075 0.10447895 0.05506502 0.42466667 0.19413944 0.091605574 -0.06868644 -0.26328158 -0.3175626 0.38841483 -0.3048775 -0.3517123 -0.00040854135 0.15359028 -0.09331331 -0.056863 0.26726297 -0.081145115 -0.4870787 0.24529357 -0.029525667 -0.37785882 0.06801853 -0.020820612 0.07416974 0.17150739 0.20414592 -0.18250105 0.14893125 0.16593622 0.05221257 0.29806873 -0.4471538 -0.41078135 0.12021528 0.12808837 -0.40686122 0.033191398 0.62081337 0.3700375 0.012883133 0.105940856 0.13920842 -0.14062977 0.04464225 0.5154687 0.12179291 0.481418 0.3487362 0.22453079 -0.13579601 -0.3516555 0.28767043 -0.06705433 0.06425942 0.59209657 0.20874718 0.2917955 -0.18147257 0.3600912 0.31051818 -0.33200762 0.082444765 0.22958837
of -0.13596936 0.35972598 0.8580695 0.034900315 -0.24820942 0.17342977 0.28337905 0.13833351 0.09149121 0.8882358 -0.30638212 0.34731856 -0.09504971 0.06588497 -0.25177357 -0.5508674 -0.43873763 0.8813814 0.067172535 0.61549836 0.021889001 -0.228413 0.07142084 -0.64923644 -0.25749525 -0.037541315 0.7361375 -0.44079736 -0.13392965 0.23278706 -0.36151278 0.21945764 -0.43165746 -0.075118236 0.0663484 -0.3209682 -0.5816713 0.14249076 0.07022957 0.56665486 0.2705649 0.12992914 -0.0981834 -0.35972512 -0.42844504 0.52001035 -0.42208108 -0.47537038 -0.0084042605 0.214571 -0.12778024 -0.070379145 0.35794282 -0.117985584 -0.6656574 0.3388441 -0.041541252 -0.5122551 0.095589384 -0.018220512 0.09972395 0.23458356 0.27369642 -0.24448293 0.20660898 0.23066962 0.06741932 0.39749423 -0.612456 -0.55472976 0.17137006 0.16632487 -0.55155957 0.038897336 0.8408344 0.5043148 0.015233482 0.144394 0.191086 -0.18376602 0.060927343 0.691949 0.16916558 0.65299475 0.47572383 0.30641928 -0.1940392 -0.47316426 0.38674492 -0.088093296 0.08746476 0.8003761 0.28905493 0.394734 -0.24473362 0.4951938 0.427082 -0.45928177 0.10917246 0.30180717
and -0.14159107 0.36639607 0.8832938 0.034797266 -0.24821158 0.18033862 0.2919396 0.13540936 0.09517898 0.91658247 -0.30849978 0.35215423 -0.09762793 0.068213105 -0.26311004 -0.57591766 -0.45027903 0.91539943 0.07108656 0.63096124 0.018309407 -0.23628078 0.074776724 -0.67359334 -0.26339936 -0.041877985 0.75588804 -0.4576537 -0.14226376 0.24320133 -0.3687471 0.221165 -0.43935978 -0.08033493 0.07174039 -0.3326846 -0.5960281 0.14841582 0.079319224 0.5931958 0.27518556 0.12803692 -0.10329277 -0.3655099 -0.44377074 0.54189795 -0.42718726 -0.49391508 -0.0026349318 0.22143811 -0.13747141 -0.07379156 0.371787 -0.12220456 -0.688616 0.3512325 -0.0383413 -0.5222606 0.09265805 -0.017643437 0.1081482 0.24104421 0.2829822 -0.2495726 0.20739661 0.23908277 0.07184456 0.41136745 -0.6292041 -0.5684711 0.17081496 0.17216943 -0.5676918 0.044031896 0.86097866 0.5189451 0.017266339 0.15250666 0.19524698 -0.19220991 0.062522285 0.7195755 0.17792132 0.66572326 0.49182916 0.32543415 -0.19665024 -0.4891607 0.39114124 -0.09724344 0.09334324 0.8297881 0.29375264 0.40626007 -0.2594223 0.5076455 0.43910462 -0.47637656 0.11325737 0.31040826
in -0.1352149 0.3498386 0.84563124 0.03324336 -0.24298744 0.16976517 0.27222905 0.13665156 0.091227725 0.871934 -0.29828867 0.34271887 -0.08881866 0.0721222 -0.2506884 -0.54695576 -0.42660317 0.8714994 0.06956995 0.6071945 0.020265095 -0.22404651 0.0757364 -0.6440967 -0.26127997 -0.0377867 0.72854674 -0.4302525 -0.1344667 0.23142628 -0.35438862 0.20954436 -0.4220306 -0.07748081 0.065998815 -0.31597662 -0.57626253 0.14071345 0.070743226 0.56521416 0.26485908 0.12941892 -0.10057422 -0.3505321 -0.4169171 0.5143828 -0.41378543 -0.4775687 -0.0043860017 0.211618 -0.12536417 -0.07363663 0.35826555 -0.10870432 -0.66215056 0.32888648 -0.03756105 -0.5032235 0.0872228 -0.018657278 0.09890277 0.22717316 0.26743317 -0.24557225 0.20204574 0.22872041 0.07149927 0.40074944 -0.6005496 -0.55117774 0.16718106 0.16043277 -0.5437374 0.038756438 0.8308215 0.4911391 0.011094865 0.15070726 0.18704136 -0.18575479 0.05534936 0.6897401 0.1658924 0.64625645 0.46843323 0.30778322 -0.18893282 -0.47146007 0.3823329 -0.08479019 0.09035825 0.7916625 0.28397664 0.38235432 -0.24369167 0.48186898 0.42364472 -0.45682648 0.11468272 0.30618143
is -0.09869933 0.2717612 0.65996987 0.021774417 -0.18871367 0.12803854 0.21868776 0.10696215 0.07590011 0.6757767 -0.22775319 0.26033732 -0.07367554 0.053206045 -0.19747809 -0.42930025 -0.33637297 0.68011653 0.053176932 0.4694379 0.009651612 -0.17517576 0.055240594 -0.49300665 -0.19409624 -0.034392066 0.5586176 -0.33978197 -0.10153673 0.17713948 -0.27739856 0.16533166 -0.3233806 -0.05905983 0.047405187 -0.24720481 -0.44548917 0.11185674 0.05338549 0.4372452 0.20112331 0.101984106 -0.07099131 -0.27024707 -0.32469594 0.40288508 -0.3165797 -0.3685843 -0.0010796816 0.16288336 -0.09923883 -0.052346203 0.2784572 -0.08523421 -0.51058894 0.25717562 -0.030244082 -0.38842988 0.06633889 -0.021657191 0.08094023 0.17737193 0.21013027 -0.18931171 0.16040471 0.17276877 0.05525465 0.31009424 -0.46690193 -0.42704 0.13206716 0.13201262 -0.41832787 0.03526737 0.6378913 0.38728222 0.011787805 0.11440037 0.1464864 -0.13888294 0.0429106 0.5354539 0.13455282 0.49971712 0.35840335 0.23955241 -0.15032804 -0.36730668 0.2920122 -0.071040295 0.06903287 0.61668485 0.22222416 0.30015662 -0.19293608 0.37323734 0.32515544 -0.34531844 0.09023681 0.23076773
to -0.11007626 0.28317052 0.6847421 0.024045775 -0.20016843 0.14071456 0.22222568 0.10950345 0.0806375 0.71627784 -0.2486425 0.2735372 -0.076497346 0.05492985 -0.20719713 -0.44895878 -0.35404044 0.7071685 0.05458997 0.48892927 0.014955865 -0.18010439 0.054195378 -0.5242753 -0.2041708 -0.036610115 0.5938385 -0.34979117 -0.10557836 0.18928264 -0.29170695 0.17262046 -0.34030202 -0.06359619 0.05391356 -0.26317018 -0.46023458 0.11622574 0.061717715 0.4592842 0.21393697 0.09787437 -0.084084824 -0.2880007 -0.34750754 0.41562235 -0.3392736 -0.38977888 -0.008221288 0.17177111 -0.107134596 -0.057919722 0.28646442 -0.09252591 -0.5321967 0.27376527 -0.035470076 -0.4125846 0.07060365 -0.01546782 0.08090945 0.18063508 0.2157435 -0.19783941 0.15836775 0.1876241 0.05291836 0.32297212 -0.49367744 -0.44448388 0.13682967 0.13122158 -0.43979132 0.033697404 0.6751114 0.3985906 0.01200573 0.116923094 0.1453891 -0.15279116 0.041701477 0.5574732 0.13971227 0.52463925 0.38442028 0.25060344 -0.14921781 -0.3790898 0.30792975 -0.06920531 0.0735145 0.6480122 0.22997266 0.31117952 -0.20278373 0.39554378 0.34587985 -0.36519536 0.086643405 0.2446131
are -0.10485012 0.26591304 0.6368247 0.023203488 -0.1835208 0.12752461 0.2077007 0.09600966 0.07557142 0.6596199 -0.22496286 0.25585887 -0.06690633 0.04879207 -0.18950383 -0.40982217 -0.3234611 0.6526426 0.04453903 0.4590766 0.014910398 -0.17189488 0.04974071 -0.48215547 -0.18941207 -0.032666076 0.54852486 -0.32336962 -0.10046744 0.1689077 -0.26702294 0.15682587 -0.3209196 -0.052816615 0.049747415 -0.23815618 -0.42655247 0.10136323 0.055387005 0.42499724 0.20246312 0.092925295 -0.07759746 -0.26546788 -0.31190073 0.38863453 -0.30536473 -0.35996035 -0.0003714954 0.15341602 -0.09230636 -0.056663606 0.26297325 -0.08230805 -0.4888828 0.24872656 -0.0281733 -0.3749903 0.07163651 -0.01964677 0.078377776 0.17085728 0.20347056 -0.18161348 0.14725673 0.17330799 0.05139193 0.30278474 -0.45602995 -0.41179103 0.12322455 0.12174198 -0.4056141 0.023758639 0.6221857 0.3751895 0.014184261 0.108720765 0.13538535 -0.14105375 0.041359633 0.5130701 0.12685315 0.48541963 0.34729397 0.2356556 -0.14118338 -0.3535523 0.28111514 -0.06638881 0.0711137 0.5970292 0.21292745 0.28567386 -0.18549877 0.3628104 0.31503135 -0.339241 0.08080109 0.2298631
a -0.09734379 0.2649592 0.62840974 0.019151434 -0.1770005 0.1296588 0.20158917 0.102371395 0.06744897 0.65177804 -0.22530377 0.2537242 -0.0671483 0.05149963 -0.18616039 -0.40470746 -0.32104516 0.6554274 0.04708287 0.4478724 0.015107197 -0.16766879 0.054746523 -0.482136 -0.19379374 -0.031315133 0.5374742 -0.322211 -0.10606933 0.17431283 -0.26787928 0.16487807 -0.31337538 -0.058895484 0.046111457 -0.2367422 -0.42594445 0.1074271 0.0503405 0.42449728 0.19275354 0.09235757 -0.075973146 -0.2636344 -0.30962643 0.38692075 -0.31079185 -0.35510045 -0.0061688954 0.15294047 -0.092079945 -0.052748 0.26598197 -0.0867047 -0.4883977 0.25236923 -0.027020896 -0.3764769 0.06956139 -0.016271286 0.07454801 0.1699867 0.1969523 -0.18534368 0.14491479 0.17088634 0.05408385 0.29592124 -0.45042205 -0.40938804 0.12483198 0.12508298 -0.39852372 0.026816465 0.616776 0.3708683 0.010891054 0.10757457 0.13401732 -0.1353032 0.042821962 0.5111236 0.12036966 0.4758344 0.35086855 0.22859785 -0.13691248 -0.34300184 0.28524202 -0.067794025 0.068391606 0.593197 0.2060542 0.28429157 -0.17805263 0.36197022 0.31717864 -0.33857453 0.08485439 0.21990176
crops -0.080573425 0.21124788 0.5058517 0.019365007 -0.14820872 0.10087272 0.16424152 0.07514098 0.05545508 0.52875257 -0.1849461 0.19958998 -0.05702707 0.044972807 -0.15541573 -0.33263528 -0.2591341 0.5246957 0.042818956 0.3692741 0.0076580797 -0.14172108 0.04466284 -0.39173883 -0.15805936 -0.021844292 0.43891895 -0.26169872 -0.084132746 0.13777865 -0.21464355 0.12791553 -0.2568754 -0.04725777 0.044014696 -0.18993755 -0.34768453 0.08907103 0.047940448 0.34050822 0.15736218 0.079091124 -0.055105977 -0.21332404 -0.25325474 0.3119274 -0.2465834 -0.29011178 -0.0068455357 0.12336206 -0.07153072 -0.041855752 0.21808237 -0.06276423 -0.40046644 0.20023473 -0.024213092 -0.30539763 0.05336375 -0.017064173 0.06464302 0.14071302 0.1668414 -0.14312439 0.12431783 0.14079043 0.035808645 0.24456207 -0.36387038 -0.3242183 0.10203499 0.102240264 -0.3259472 0.021882335 0.49438536 0.29828542 0.008543666 0.08597413 0.11464545 -0.11043983 0.035036463 0.41532683 0.099646084 0.3881371 0.28039056 0.1866417 -0.108005054 -0.27685705 0.23272046 -0.05787887 0.058140576 0.4736129 0.165923 0.22944905 -0.14450017 0.29651394 0.25582886 -0.27112705 0.0684217 0.18369193
as -0.09459014 0.2516983 0.6109604 0.018733514 -0.17359318 0.12706414 0.20333833 0.09122212 0.068577364 0.63149 -0.21767408 0.24435699 -0.06256025 0.044332538 -0.17586157 -0.39852133 -0.31420922 0.6358085 0.042020276 0.44004184 0.014126078 -0.16621384 0.05081021 -0.46326935 -0.18847793 -0.026599836 0.5190691 -0.3165786 -0.102595866 0.16466194 -0.25217322 0.15925446 -0.30347675 -0.056330778 0.04710259 -0.23087716 -0.41225702 0.099620976 0.048251707 0.41093025 0.18845783 0.08624029 -0.06629627 -0.25862053 -0.30537745 0.371886 -0.3011237 -0.3444495 -0.0023967465 0.153873 -0.09037431 -0.052425314 0.25682196 -0.07782775 -0.47002196 0.2449457 -0.033862762 -0.35653096 0.060921255 -0.016651522 0.072048426 0.16230749 0.18987897 -0.17131126 0.14649907 0.16188104 0.054203894 0.290109 -0.43840316 -0.391793 0.12384895 0.118175276 -0.38699472 0.023683352 0.60166365 0.36053377 0.010513204 0.102829464 0.1341019 -0.13811311 0.04246406 0.49711728 0.12460696 0.4620425 0.34058493 0.22611535 -0.13737176 -0.3386058 0.27804014 -0.06688427 0.060108855 0.5695757 0.2030555 0.27716792 -0.1788151 0.34906873 0.30535334 -0.32668826 0.0759576 0.22154553
for -0.101619564 0.27337563 0.667168 0.026325146 -0.19106321 0.1315649 0.21768014 0.10389258 0.0775004 0.6881058 -0.23802942 0.2710666 -0.07627786 0.05058649 -0.19437222 -0.42859173 -0.33907667 0.6919055 0.05121674 0.47299466 0.010905652 -0.17839488 0.054087613 -0.50349283 -0.20318842 -0.030687116 0.5697436 -0.34272808 -0.10525954 0.1853592 -0.2788237 0.16707943 -0.3282328 -0.055717714 0.05201592 -0.25296944 -0.45280865 0.1106233 0.060549915 0.44057456 0.21148905 0.09782228 -0.07744246 -0.2791722 -0.3328512 0.40662128 -0.32887015 -0.37293434 -0.0013684502 0.16509964 -0.09892558 -0.05316583 0.27412096 -0.0909817 -0.5128357 0.26011816 -0.034544416 -0.3965998 0.07508137 -0.01638911 0.076927304 0.1749954 0.21372326 -0.1894098 0.15853316 0.17560616 0.05768813 0.30924368 -0.47214478 -0.43467608 0.1336727 0.13509504 -0.4238898 0.034667347 0.64809155 0.38698125 0.009155494 0.11446162 0.14898752 -0.14663622 0.04199692 0.53582376 0.12944521 0.5061396 0.36457545 0.24724443 -0.15247643 -0.3667037 0.30287054 -0.06506473 0.06586853 0.62515616 0.22567043 0.30217636 -0.19430695 0.38580367 0.33459708 -0.3595438 0.08750072 0.23579486
crop -0.0625694 0.17254002 0.40606582 0.010188965 -0.11878783 0.0843592 0.1348844 0.068348125 0.041965984 0.41484433 -0.14799835 0.1650481 -0.043054767 0.028489824 -0.1184812 -0.26423833 -0.20162953 0.4212051 0.026648832 0.2915074 0.0031747383 -0.10540194 0.037229743 -0.3112483 -0.119577006 -0.01615298 0.34454447 -0.21124402 -0.06916285 0.10780593 -0.1657386 0.10610317 -0.2005456 -0.03841619 0.027579755 -0.15357445 -0.27045432 0.065423146 0.029970732 0.26593938 0.122414015 0.06032211 -0.049244083 -0.16831633 -0.20245807 0.24774557 -0.20088927 -0.2256296 -0.0014656902 0.10004605 -0.056918565 -0.03084006 0.1730049 -0.048945554 -0.3130129 0.1586636 -0.020496493 -0.24341033 0.041778754 -0.012565808 0.047922034 0.11346635 0.1292726 -0.11380186 0.1006079 0.10505415 0.034942824 0.18721032 -0.29315734 -0.26048294 0.07497025 0.082578175 -0.257326 0.022394245 0.39776367 0.23956433 0.002468738 0.06877103 0.08537316 -0.089931205 0.031045021 0.32537606 0.08242399 0.31117082 0.21882315 0.14767747 -0.085730314 -0.2240184 0.18161243 -0.040634435 0.038675744 0.38257235 0.13127011 0.18596509 -0.120926 0.22866137 0.20490564 -0.21555652 0.05665867 0.14415613
india -0.06493013 0.1620698 0.38025647 0.012253588 -0.11343614 0.077720515 0.12249961 0.05651618 0.043668505 0.39389154 -0.1310145 0.15501325 -0.040882323 0.034497455 -0.11072157 -0.243863 -0.19651034 0.39443508 0.030549075 0.27760938 0.0065166284 -0.105490044 0.034020156 -0.28564137 -0.11117649 -0.0196771 0.32868108 -0.19716994 -0.06215477 0.103781134 -0.15938538 0.091829255 -0.19071762 -0.037845194 0.03269929 -0.14267287 -0.2615912 0.061152622 0.029363891 0.25349143 0.11818181 0.05944834 -0.047453675 -0.16107844 -0.18672766 0.23577546 -0.18268013 -0.21151552 0.0010432823 0.097760685 -0.05859315 -0.034308422 0.15490158 -0.048868768 -0.29599336 0.15139788 -0.020506829 -0.22460893 0.044955187 -0.0073838797 0.047476962 0.10703609 0.12572834 -0.10560357 0.09435809 0.098024815 0.02910559 0.17725833 -0.27455723 -0.24951997 0.08005584 0.07101364 -0.24925944 0.018564168 0.37791604 0.22381182 0.006466511 0.062196586 0.08613169 -0.08100326 0.026197115 0.31331933 0.07635025 0.28904036 0.2137145 0.14213891 -0.08691843 -0.20674881 0.17308535 -0.04148762 0.035752065 0.3623253 0.123661734 0.17434202 -0.11219152 0.21757175 0.1877009 -0.20862144 0.0462502 0.13668373
it -0.05726555 0.14941981 0.34873247 0.014220809 -0.100468725 0.07378979 0.11408075 0.055610683 0.03886666 0.35938793 -0.12757516 0.13822141 -0.034094613 0.03266176 -0.10237484 -0.22861145 -0.17381728 0.36026236 0.029212948 0.2514528 0.005162438 -0.09411218 0.032470156 -0.26242808 -0.10192608 -0.018636094 0.30228472 -0.18034703 -0.06090178 0.09452696 -0.14747658 0.087633364 -0.17412683 -0.03478498 0.02276282 -0.13646856 -0.23867667 0.060818963 0.03479689 0.2353597 0.11115245 0.049903784 -0.038046014 -0.14400649 -0.17683092 0.21255377 -0.16783269 -0.19081098 0.0012694728 0.08723461 -0.04984534 -0.030844927 0.14465716 -0.0418101 -0.27480364 0.13607427 -0.017696325 -0.20408413 0.034210637 -0.012295451 0.037320964 0.08988846 0.112288594 -0.10377802 0.084005035 0.09010237 0.026597213 0.16650148 -0.2456316 -0.22249591 0.0709527 0.07049491 -0.21894498 0.013134084 0.3406495 0.2041119 0.0033237499 0.06314918 0.074425526 -0.07275929 0.025043353 0.27995008 0.07305624 0.2683868 0.1891597 0.12488819 -0.07579076 -0.18676157 0.15147418 -0.034707237 0.03810321 0.324752 0.11747805 0.16066308 -0.09798506 0.20240957 0.16902153 -0.18578385 0.047182016 0.12034032
with -0.08912184 0.2423726 0.57521975 0.02238024 -0.1642871 0.117050976 0.18871208 0.085902944 0.059948258 0.59459466 -0.20772944 0.23442446 -0.06370329 0.043762945 -0.17146794 -0.3740509 -0.2874121 0.59127057 0.048794683 0.4129779 0.010565278 -0.15321706 0.052112192 -0.43229252 -0.17843202 -0.026359236 0.49421734 -0.28980374 -0.09217837 0.158117 -0.24167158 0.14819944 -0.28874466 -0.05031971 0.03886016 -0.2153335 -0.3868054 0.09246993 0.050668415 0.3788134 0.17847925 0.08086063 -0.069915 -0.23658724 -0.28131282 0.35377336 -0.2834036 -0.3184863 -0.005476483 0.13748544 -0.090877645 -0.044892874 0.2363157 -0.076589026 -0.4489935 0.22291274 -0.027716912 -0.3377957 0.06305569 -0.015437327 0.06929925 0.1524949 0.17883904 -0.16879196 0.13312541 0.153784 0.042453315 0.27178457 -0.40886536 -0.37541956 0.11752718 0.1146779 -0.36525097 0.030730484 0.5638553 0.33086312 0.0069986745 0.09386076 0.124482356 -0.12522098 0.035690214 0.46667233 0.11190203 0.43574858 0.32048818 0.2091619 -0.1280733 -0.31321865 0.25566542 -0.05594026 0.064986385 0.5371331 0.19266905 0.26196322 -0.1679004 0.32649964 0.28303275 -0.30660823 0.0778965 0.20889618
) -0.07189733 0.16974284 0.42268428 0.018284306 -0.12489195 0.08881339 0.13230509 0.061919928 0.050705392 0.43315074 -0.153867 0.16607973 -0.0418556 0.032411385 -0.12886478 -0.26896113 -0.2121688 0.4312825 0.029018864 0.29995465 0.0036872139 -0.11206578 0.03554533 -0.32130778 -0.124008454 -0.023615204 0.3637401 -0.21241836 -0.06863342 0.1171858 -0.17249887 0.1116227 -0.21367817 -0.035989553 0.034732882 -0.15584563 -0.28300261 0.06477203 0.039370403 0.28047535 0.13206367 0.06715538 -0.043873593 -0.1759076 -0.21493305 0.25563407 -0.20527591 -0.24025032 -0.0014215 0.10572988 -0.06392775 -0.032351438 0.1766187 -0.060023494 -0.33229107 0.16152515 -0.025165021 -0.24959187 0.045170467 -0.009216482 0.04628903 0.111948825 0.13156179 -0.1193899 0.09461916 0.11052849 0.036103684 0.19395474 -0.30614603 -0.27382496 0.07958202 0.083069645 -0.2718389 0.01991993 0.41031286 0.24347153 0.0083594 0.07509559 0.09104836 -0.09449062 0.026988706 0.34647554 0.080500245 0.32390767 0.23109502 0.15604313 -0.09517203 -0.23446363 0.18448272 -0.042043276 0.04713075 0.3990242 0.14346676 0.19603221 -0.1174218 0.23874944 0.2151542 -0.22597034 0.053329848 0.15130983
production -0.06954954 0.16902345 0.4141664 0.016493892 -0.11431507 0.082745604 0.13559663 0.06639866 0.04591809 0.4212 -0.14072593 0.16078083 -0.047571838 0.027583346 -0.116089426 -0.26350865 -0.20844091 0.42104018 0.035092372 0.29747355 0.0039807563 -0.10676812 0.03194276 -0.30995062 -0.122629 -0.020435689 0.3551198 -0.20636652 -0.06862043 0.106506504 -0.17394361 0.10723478 -0.20390901 -0.039627656 0.028535124 -0.15319164 -0.28128707 0.063599326 0.030433046 0.27219427 0.1303438 0.06309119 -0.044797227 -0.17046465 -0.2019659 0.24640998 -0.2020846 -0.22908808 -0.0065839 0.09643002 -0.05875679 -0.037362635 0.17272218 -0.05048146 -0.31731677 0.16499808 -0.017302258 -0.2471257 0.0391829 -0.014576952 0.04702945 0.108743854 0.13093017 -0.115491994 0.099398725 0.113735564 0.03369935 0.19122617 -0.29258898 -0.26459405 0.0804622 0.07448461 -0.266741 0.018651772 0.39768007 0.23688827 0.0042512766 0.07570635 0.09002106 -0.085372604 0.023540515 0.33265242 0.08437326 0.30899957 0.23141612 0.15196432 -0.09136096 -0.22878371 0.18194807 -0.044542268 0.047236025 0.3873367 0.13548754 0.18254398 -0.121038765 0.23248306 0.20641741 -0.21992894 0.0552228 0.14637943
food -0.060556386 0.16631962 0.40078348 0.011629148 -0.111832656 0.084857956 0.13162552 0.06645953 0.04251079 0.4143692 -0.14455166 0.15891093 -0.04119669 0.031819113 -0.11832023 -0.26003033 -0.20645462 0.4190468 0.031740647 0.28552067 0.0040513785 -0.1048219 0.03452642 -0.30373093 -0.12523907 -0.016455498 0.35089698 -0.20949695 -0.06373573 0.11319845 -0.17345028 0.10640325 -0.20604913 -0.033728823 0.03187107 -0.15520805 -0.2730683 0.0615933 0.032386806 0.26500577 0.1221798 0.06396653 -0.047989555 -0.16600214 -0.2057626 0.2411773 -0.19400959 -0.22290678 -0.0054779467 0.1043667 -0.061289653 -0.031103086 0.1648124 -0.05252229 -0.30901664 0.1562649 -0.022047425 -0.2429062 0.045681566 -0.0055996473 0.048138764 0.111735485 0.12415725 -0.118131235 0.09523364 0.10445025 0.028514897 0.19217652 -0.2876109 -0.2617005 0.08187141 0.07540298 -0.26134086 0.017528053 0.39573106 0.23954187 0.002133664 0.06671545 0.084721915 -0.09039269 0.028711027 0.32761997 0.0792909 0.30548394 0.22774431 0.14207712 -0.09095365 -0.22348592 0.18525435 -0.04533607 0.04420137 0.38249025 0.13269998 0.18072502 -0.11772389 0.22927152 0.20431894 -0.21083649 0.04958191 0.14461151
( -0.0660465 0.17504928 0.40847826 0.013882359 -0.117955625 0.081347354 0.13342993 0.060808264 0.04554467 0.43005934 -0.14310265 0.16310781 -0.04774142 0.037337184 -0.12204525 -0.26608396 -0.21088572 0.42776507 0.02774609 0.29424217 0.009590649 -0.11397333 0.029314024 -0.31135735 -0.12837951 -0.024187153 0.3565748 -0.21581239 -0.060201544 0.11347346 -0.17548096 0.105589755 -0.20915109 -0.03789294 0.035838027 -0.15626204 -0.27877158 0.06461283 0.038461354 0.27021375 0.13193868 0.065422714 -0.052120328 -0.17081435 -0.20785037 0.25104907 -0.20285143 -0.2271901 0.002888535 0.10610353 -0.06325519 -0.029853053 0.17656216 -0.05946896 -0.32190457 0.16470344 -0.015699584 -0.24859267 0.040181343 -0.005954598 0.044514827 0.110831216 0.13181859 -0.11291136 0.09486275 0.11303576 0.03765713 0.18911278 -0.2973425 -0.26391652 0.077978574 0.07872969 -0.2620109 0.02263698 0.4037261 0.24139982 0.0029470962 0.075801246 0.085204326 -0.08763983 0.028336834 0.33753684 0.084399596 0.31634402 0.22726761 0.14634922 -0.09295379 -0.228604 0.18677598 -0.040913884 0.0423429 0.38899386 0.13233723 0.18707243 -0.11420381 0.23299262 0.20363091 -0.2185677 0.058126457 0.14589244
or -0.07113451 0.1858498 0.43329552 0.012667662 -0.12056731 0.084780216 0.13921405 0.06876419 0.052574296 0.4462573 -0.15231547 0.16971178 -0.048334822 0.033244163 -0.12558985 -0.28236192 -0.22610246 0.45239604 0.035657186 0.30627263 0.007933071 -0.11219944 0.036338545 -0.3307443 -0.12746826 -0.023329966 0.3746737 -0.2281644 -0.071504965 0.121367484 -0.18083338 0.109064415 -0.21740685 -0.03628611 0.030964466 -0.1633656 -0.29335988 0.07531922 0.039344247 0.28884137 0.13500322 0.06503682 -0.045456085 -0.18398279 -0.22101106 0.26208103 -0.21310827 -0.24031264 -0.005320872 0.10562489 -0.06707961 -0.041033726 0.18128885 -0.053809177 -0.33700746 0.16880058 -0.02462714 -0.26193175 0.041429415 -0.012674651 0.04779857 0.113824904 0.13746196 -0.12373268 0.107533224 0.11460773 0.033557788 0.20779932 -0.3103752 -0.28132752 0.08652968 0.08177552 -0.2811593 0.014710244 0.42174047 0.25851068 0.0096700145 0.07976292 0.090917856 -0.09407965 0.02665629 0.3526494 0.08510363 0.33440417 0.23839346 0.15994045 -0.09401968 -0.23773742 0.19733545 -0.04334986 0.04704716 0.40236032 0.1420119 0.1947413 -0.12159589 0.24628012 0.21241182 -0.23132771 0.05936019 0.15644035
on -0.07398572 0.20367058 0.4869599 0.021582784 -0.13871619 0.094872236 0.16066231 0.07760736 0.055914577 0.50242674 -0.176638 0.1953151 -0.054468066 0.0402515 -0.14618503 -0.31353953 -0.24571772 0.4973981 0.035156414 0.35025895 0.0046132333 -0.13018829 0.04357505 -0.37064597 -0.14916009 -0.020676536 0.4155143 -0.24577777 -0.08261526 0.13428596 -0.20793933 0.12086596 -0.24212632 -0.0422937 0.03763121 -0.18053623 -0.32789958 0.078038506 0.037349798 0.32320523 0.1552819 0.07390547 -0.057597484 -0.19955416 -0.2421256 0.29876035 -0.23256077 -0.27622965 -0.0065669124 0.11793616 -0.077209115 -0.04286139 0.19828624 -0.0670416 -0.38005927 0.19150735 -0.026491838 -0.28936666 0.0519635 -0.007840097 0.053810395 0.13265102 0.15571888 -0.14290145 0.11244258 0.134303 0.035866037 0.22743791 -0.35001102 -0.31389603 0.09459761 0.09767239 -0.31460205 0.018576307 0.47637343 0.2791196 0.011825473 0.08127497 0.109363765 -0.108677916 0.029987909 0.3917532 0.09865714 0.36370888 0.26460242 0.17781231 -0.1067797 -0.27256006 0.21546109 -0.05299202 0.048452504 0.45524573 0.15890944 0.22266684 -0.14009587 0.27461174 0.2444387 -0.2596196 0.06807506 0.17336288
area -0.07308961 0.17845604 0.43001553 0.013642257 -0.12412372 0.082397826 0.13960034 0.06493208 0.046224833 0.443818 -0.1523858 0.1734049 -0.051434323 0.03007391 -0.12369252 -0.27807054 -0.21086946 0.43986258 0.034204397 0.30440527 0.004996817 -0.117142454 0.033467125 -0.32247633 -0.1292499 -0.019511653 0.36698335 -0.22181784 -0.06416439 0.11307437 -0.17637104 0.103509225 -0.21171585 -0.044316605 0.035782374 -0.1652116 -0.28648323 0.06647442 0.037306294 0.28643817 0.12926684 0.06692653 -0.052765545 -0.17810486 -0.21280849 0.2555151 -0.20508896 -0.23848198 -0.0044082585 0.10633823 -0.06416487 -0.037806146 0.17523444 -0.06079838 -0.32687563 0.16499868 -0.018509462 -0.2563996 0.04476905 -0.0070290244 0.046696167 0.11367662 0.13976118 -0.12550539 0.102256656 0.115258284 0.038161904 0.1975394 -0.30435693 -0.27190554 0.07973263 0.07742593 -0.26915637 0.01528453 0.4183117 0.24584001 0.011468327 0.07283242 0.09072536 -0.090773016 0.028285531 0.34998998 0.083272405 0.3236867 0.23367696 0.15304218 -0.09720477 -0.23837788 0.19018511 -0.03960491 0.04604715 0.40335643 0.14571811 0.1913601 -0.12322113 0.24658094 0.21434332 -0.2267634 0.053201657 0.14622104
grown -0.05485652 0.14725707 0.36396688 0.0129265115 -0.10752063 0.06888532 0.120536394 0.05920116 0.042792417 0.37537464 -0.13230012 0.14369819 -0.041423928 0.029585581 -0.10315982 -0.23704661 -0.18800284 0.36993524 0.030651415 0.25852573 0.0055488846 -0.09718652 0.03587905 -0.27210227 -0.11057405 -0.018517911 0.30587542 -0.18772252 -0.06238131 0.09573386 -0.14987713 0.091344684 -0.18109214 -0.028198306 0.02469262 -0.13650492 -0.2411 0.061126616 0.033347033 0.2426362 0.11273723 0.058815114 -0.04075558 -0.14943421 -0.18384 0.222747 -0.17980063 -0.20580369 -0.0070470176 0.08487611 -0.051127713 -0.027463492 0.15423682 -0.043568254 -0.27578655 0.14176643 -0.017221123 -0.20987095 0.03500439 -0.013867243 0.04232579 0.09729437 0.11025944 -0.10679529 0.083630204 0.099112354 0.031388514 0.17144252 -0.26092288 -0.22835977 0.07174658 0.07386669 -0.22921692 0.016381899 0.34859246 0.21392703 0.006811241 0.0586553 0.07836078 -0.07386102 0.028811915 0.29650056 0.06652772 0.2784853 0.19965504 0.12749542 -0.07948351 -0.19687267 0.16636048 -0.037717104 0.03706429 0.34018373 0.11461217 0.15985487 -0.105974786 0.20974462 0.18028021 -0.19467705 0.045651555 0.13055362
has -0.06344976 0.17318675 0.42151713 0.010360613 -0.1210575 0.08565224 0.13786685 0.06543563 0.050047223 0.44277808 -0.1512634 0.16650042 -0.04057892 0.0334677 -0.11908188 -0.27597123 -0.22062638 0.44138527 0.032520566 0.30464825 0.009897981 -0.11248768 0.04059581 -0.32133588 -0.13243136 -0.024513004 0.3589197 -0.21250094 -0.06610522 0.11237235 -0.1813316 0.10862311 -0.21629892 -0.04163662 0.035413254 -0.16428286 -0.2878258 0.06594893 0.030982211 0.2868632 0.1316775 0.058885023 -0.04427085 -0.17529237 -0.20583685 0.25403446 -0.20749252 -0.2376775 -0.0026336398 0.106945656 -0.066581234 -0.038494915 0.17764509 -0.061214723 -0.32754594 0.16839214 -0.024731344 -0.25462067 0.04968355 -0.013583816 0.05205471 0.11149909 0.13081755 -0.12337538 0.10522465 0.11585014 0.03546054 0.19568871 -0.305616 -0.27809414 0.08120012 0.087599225 -0.2724262 0.022796802 0.4146673 0.24963076 0.0017650244 0.07635792 0.091831386 -0.09151678 0.033383917 0.3452368 0.08583222 0.32371137 0.23852268 0.15300186 -0.09806459 -0.2363528 0.19033813 -0.046816457 0.048945 0.39982927 0.13886678 0.1945602 -0.119243674 0.24649824 0.210231 -0.2232961 0.059970044 0.15426417
be -0.064219445 0.18438566 0.42777437 0.016582526 -0.12711045 0.08697689 0.14380628 0.06788451 0.04472337 0.44838783 -0.14821583 0.17554475 -0.047958147 0.039214034 -0.13094395 -0.28347653 -0.21664645 0.45099598 0.028206347 0.3135122 0.0053601093 -0.112417765 0.039773688 -0.33275107 -0.12780383 -0.026090419 0.37322164 -0.2172119 -0.07395827 0.11744928 -0.17653918 0.11295059 -0.21381615 -0.03453599 0.035690553 -0.16834438 -0.29545254 0.07059573 0.041053258 0.29102412 0.1343433 0.059080567 -0.053026754 -0.18179335 -0.21720669 0.26750395 -0.21038942 -0.2423382 0.00021011042 0.1065542 -0.06012263 -0.03711654 0.17522539 -0.054589994 -0.33733496 0.17013225 -0.024197055 -0.2581634 0.046139393 -0.01570656 0.05213634 0.11831924 0.1317169 -0.12780657 0.10066696 0.11550064 0.037853517 0.20297483 -0.30872315 -0.28051272 0.08797585 0.08760702 -0.2730394 0.023529133 0.41990593 0.2525038 0.0017973033 0.073147185 0.09687532 -0.08992293 0.029743701 0.3520445 0.08276155 0.3284792 0.240073 0.15497553 -0.099465966 -0.23933837 0.1889344 -0.04845733 0.045657087 0.3998346 0.14072093 0.20123136 -0.12171155 0.24193239 0.21646255 -0.2280237 0.05197977 0.15082285
wheat -0.04331465 0.101833485 0.24607775 0.01123619 -0.07310507 0.04873468 0.08516454 0.042841986 0.02534285 0.25030664 -0.08519162 0.10076304 -0.025230076 0.019131279 -0.07268989 -0.15965241 -0.12312998 0.24731405 0.022789191 0.17726506 0.0022238134 -0.06375454 0.02130231 -0.18217652 -0.07739202 -0.011339492 0.20556986 -0.12520924 -0.033750124 0.07082123 -0.10316437 0.06407633 -0.12786354 -0.018178258 0.02170876 -0.09244977 -0.16717108 0.039220568 0.024147173 0.1599204 0.07201312 0.032026574 -0.028556556 -0.10499446 -0.122148104 0.14708778 -0.122224666 -0.13811633 0.003224108 0.056106254 -0.032378457 -0.024513917 0.099030755 -0.03662436 -0.18869601 0.09090115 -0.00984753 -0.14697544 0.021281878 -0.008965411 0.024767336 0.067177325 0.07962466 -0.06718376 0.056535073 0.06596422 0.016239684 0.1135417 -0.17764907 -0.15941301 0.052955445 0.051499195 -0.15863672 0.010156895 0.24031231 0.1398489 0.008824892 0.041839175 0.04861312 -0.05826356 0.021792794 0.19637151 0.052590393 0.18878716 0.13052256 0.09276063 -0.052387152 -0.13269912 0.10817069 -0.021660373 0.0220873 0.23054413 0.07915659 0.11588145 -0.07265384 0.14541817 0.12628701 -0.1269424 0.02772002 0.09054586
major -0.038067117 0.11027456 0.25431216 0.011572074 -0.07739268 0.04822658 0.08740105 0.044797003 0.030700926 0.2626224 -0.0922396 0.10179331 -0.029476967 0.01944751 -0.07693461 -0.16609633 -0.13074417 0.26068372 0.016438851 0.18372776 0.0005945134 -0.066577114 0.023695111 -0.19772662 -0.08028083 -0.011651285 0.22363909 -0.131914 -0.035925005 0.07201477 -0.11144823 0.06460737 -0.12629992 -0.020426258 0.021823898 -0.09181397 -0.17050408 0.0399779 0.025484394 0.16991024 0.07780273 0.04094948 -0.030144574 -0.11100587 -0.12980908 0.15962301 -0.12423842 -0.14315236 -0.0041038366 0.05833725 -0.03335808 -0.018453004 0.103481986 -0.03715666 -0.20065202 0.10296611 -0.010900523 -0.15473716 0.031747375 -0.0038988993 0.029075122 0.07113781 0.08206804 -0.07209692 0.0647767 0.06682791 0.019688945 0.12296627 -0.18123087 -0.16638298 0.049851563 0.04849591 -0.16752128 0.0068426686 0.2523747 0.14838123 0.003811857 0.049122263 0.05596637 -0.058726083 0.016453033 0.20959358 0.046467192 0.19645093 0.14048778 0.09776093 -0.05367295 -0.1416663 0.115504116 -0.03100558 0.023076829 0.23709098 0.079641 0.11602967 -0.07853958 0.14786771 0.1322389 -0.13650952 0.031885944 0.095633514
an -0.072931886 0.1751051 0.42662823 0.01703088 -0.12400305 0.08818499 0.13995782 0.0635912 0.043868527 0.44602862 -0.15433785 0.17507698 -0.041235544 0.03287684 -0.12053598 -0.28005576 -0.21617514 0.44669503 0.029408934 0.304656 0.0082486365 -0.11570078 0.035456646 -0.32418385 -0.12715611 -0.020042527 0.36545658 -0.22259887 -0.072958335 0.1185124 -0.17555313 0.11108955 -0.21225944 -0.03769987 0.03131423 -0.16519718 -0.28588948 0.06919032 0.032122184 0.28479728 0.13492262 0.06431711 -0.050833546 -0.17321503 -0.2089835 0.25987715 -0.21068537 -0.23857786 0.00019467187 0.107457995 -0.06272395 -0.03905104 0.17945524 -0.053437255 -0.3328814 0.16321224 -0.019885786 -0.24820241 0.047401186 -0.010442458 0.054790284 0.1162908 0.13199879 -0.123448856 0.09946573 0.11401977 0.031142779 0.2053539 -0.3066258 -0.27191713 0.08869599 0.07950153 -0.2760177 0.015034596 0.42131332 0.24878289 0.001903778 0.07868068 0.097235605 -0.08890983 0.025582664 0.34801027 0.08775255 0.32032403 0.23183523 0.15769559 -0.09955328 -0.23316984 0.1901483 -0.0499137 0.04639754 0.4015016 0.14530145 0.1965304 -0.12031366 0.24604566 0.21645197 -0.23219055 0.06060965 0.14766571
these -0.052451484 0.13712007 0.33866185 0.014368045 -0.09630482 0.07067859 0.107044585 0.04783816 0.04154701 0.3487107 -0.12112486 0.13506736 -0.03671391 0.025036529 -0.099499196 -0.21628092 -0.1705499 0.34005573 0.024249936 0.23716652 0.011120991 -0.08588948 0.024269588 -0.24958797 -0.09596649 -0.015869003 0.2895222 -0.17311445 -0.057586577 0.09553877 -0.13658287 0.08548632 -0.17022277 -0.028624061 0.028136155 -0.1281537 -0.22880931 0.054049198 0.029269231 0.21913826 0.10392766 0.051751122 -0.040239803 -0.14064312 -0.16489062 0.20175405 -0.161376 -0.19159234 -0.0062613953 0.083691485 -0.053216897 -0.02334927 0.13741131 -0.04321787 -0.261185 0.1275223 -0.01433797 -0.1995111 0.032287184 -0.012818001 0.038188644 0.087953575 0.10371421 -0.09995303 0.07717536 0.08572467 0.022194266 0.15582734 -0.23685701 -0.21623455 0.06605376 0.066683695 -0.21328518 0.012474086 0.3311785 0.1950173 0.005079429 0.053133998 0.0732694 -0.076912105 0.022252766 0.27554223 0.063117586 0.25203225 0.18091762 0.11809356 -0.0719757 -0.18910463 0.15405732 -0.03287428 0.03292237 0.31360197 0.108891755 0.15341182 -0.09439876 0.1951789 0.16594033 -0.1741525 0.04771084 0.1199492
kharif -0.05075242 0.12626027 0.29366502 0.0082686925 -0.07948751 0.056817006 0.09132702 0.047927577 0.035271004 0.30964255 -0.103767805 0.117739625 -0.031170806 0.027157564 -0.082301706 -0.18929417 -0.1498058 0.30637327 0.021281809 0.2124002 0.0033344466 -0.07888915 0.02054084 -0.22858539 -0.09059748 -0.019516185 0.25696898 -0.15018505 -0.045332577 0.08388511 -0.11854568 0.07494434 -0.14791149 -0.025384396 0.019824373 -0.108058974 -0.1947345 0.04519395 0.020137765 0.20018966 0.09169778 0.047483556 -0.037876334 -0.12372525 -0.14791596 0.17542154 -0.14521493 -0.16513216 0.0007639453 0.07651936 -0.039982047 -0.023308761 0.12262319 -0.04252026 -0.2289087 0.11228806 -0.019230347 -0.17696412 0.030007642 -0.0055265655 0.033508696 0.0791089 0.09614266 -0.08122566 0.06709749 0.076647006 0.022225283 0.14211264 -0.21191853 -0.18786629 0.058425676 0.05955927 -0.18838385 0.01772077 0.28495046 0.17639267 0.0030942303 0.05199631 0.06765239 -0.06730636 0.022264998 0.24500823 0.060316887 0.22549617 0.16666175 0.10842081 -0.06331578 -0.16000308 0.13092954 -0.030860892 0.03387073 0.2804751 0.09673361 0.1335368 -0.086028896 0.1683713 0.14495377 -0.15597257 0.03618803 0.10261271
its -0.06124824 0.16459903 0.4050985 0.01195149 -0.12024048 0.08323405 0.13419905 0.063323 0.04941529 0.42450663 -0.14847812 0.16315636 -0.042754553 0.03540691 -0.12153503 -0.26583663 -0.2092975 0.42497846 0.030158835 0.28907344 0.012588201 -0.11009032 0.034153346 -0.31108207 -0.12489739 -0.02435051 0.34409064 -0.2112766 -0.06113389 0.105408736 -0.16494969 0.10520163 -0.20276767 -0.03209058 0.031244362 -0.15372406 -0.2740455 0.07000407 0.031574443 0.26762706 0.124367654 0.061688174 -0.048934877 -0.16778962 -0.19714628 0.24914785 -0.2026789 -0.22361678 -0.00092431885 0.09700385 -0.05702312 -0.038095206 0.16981903 -0.05105646 -0.31927407 0.15946881 -0.014586952 -0.23539741 0.044552278 -0.007367976 0.0450386 0.11202243 0.1258286 -0.11401236 0.09781085 0.11085176 0.029100046 0.18854935 -0.29329237 -0.25762632 0.08134724 0.07951299 -0.2554038 0.014256435 0.3985202 0.23671906 0.0037073053 0.06538956 0.08413417 -0.08880709 0.028163034 0.32587233 0.08432113 0.30912027 0.2281641 0.14920574 -0.08611336 -0.22863299 0.1786772 -0.04635249 0.039750382 0.38040358 0.13771385 0.18531612 -0.1203964 0.236508 0.2000011 -0.21307793 0.05578226 0.14336462
important -0.058356952 0.14490515 0.3464243 0.011434039 -0.09610127 0.0733016 0.11149878 0.053971127 0.034581248 0.35763812 -0.11709008 0.13640897 -0.03245782 0.02616623 -0.10298027 -0.22779751 -0.17141062 0.3589032 0.021661686 0.25014147 0.009608428 -0.09023184 0.032508504 -0.26169834 -0.09957398 -0.020988125 0.29900154 -0.17492701 -0.0535697 0.0941728 -0.14319074 0.081872806 -0.17042783 -0.03181974 0.021986097 -0.12854922 -0.2320023 0.061477438 0.032261476 0.22909696 0.11222948 0.05391406 -0.037664652 -0.14377984 -0.17490873 0.20986822 -0.16585086 -0.19043134 -0.0037495526 0.0884281 -0.056044213 -0.033985436 0.14138626 -0.050828848 -0.26399064 0.13666493 -0.020851271 -0.20525846 0.0323273 -0.0041655446 0.036634855 0.09664582 0.10998498 -0.10120023 0.07878605 0.088286914 0.030179776 0.16413277 -0.24979801 -0.22258416 0.06627107 0.06813941 -0.22531565 0.019457445 0.34100506 0.20049669 0.004210969 0.054936897 0.07538109 -0.072375014 0.027015718 0.2788592 0.07238056 0.26529112 0.19298074 0.12761396 -0.07452282 -0.18481123 0.1509413 -0.03586936 0.033875965 0.31970772 0.11763205 0.15533848 -0.098304436 0.20076384 0.1735085 -0.18078072 0.04484973 0.11795369
maize -0.049388465 0.12353891 0.286064 0.014630335 -0.080386914 0.052616075 0.093122184 0.045612913 0.032347284 0.30149823 -0.10120564 0.118085034 -0.030086333 0.027399287 -0.08500318 -0.18039477 -0.14285389 0.29481313 0.02711867 0.20711067 0.010178385 -0.07156824 0.019809576 -0.22148678 -0.08685207 -0.010022864 0.24864039 -0.15085028 -0.049425587 0.0811337 -0.12410343 0.06786592 -0.14287937 -0.022679165 0.023651842 -0.11251175 -0.19793516 0.050785437 0.028130373 0.1956886 0.091895476 0.047789175 -0.03387221 -0.11620083 -0.14221554 0.17778292 -0.14186461 -0.16477278 -0.004128119 0.07062286 -0.039671596 -0.027504 0.12327416 -0.040478285 -0.2260566 0.109129764 -0.015988017 -0.17220815 0.032385197 -0.0062385746 0.03070952 0.07284563 0.091858044 -0.08065409 0.0679443 0.07381915 0.021583328 0.13843694 -0.20655294 -0.18459098 0.054622248 0.05850221 -0.1826487 0.01632342 0.28007334 0.16580808 0.004535942 0.050774142 0.061065294 -0.05908543 0.018725531 0.23172346 0.058869578 0.21922413 0.15558265 0.10891911 -0.06783724 -0.15334778 0.12645851 -0.029207423 0.02963381 0.2697454 0.0992028 0.13318346 -0.08349774 0.16315816 0.14225206 -0.15172389 0.035860408 0.106430545
under -0.06181016 0.15820925 0.38722053 0.011361921 -0.11253529 0.08149702 0.12537421 0.060530417 0.045955703 0.40316615 -0.13897273 0.15265533 -0.04443003 0.032002512 -0.1164605 -0.25412276 -0.1981732 0.40319276 0.033742618 0.2740269 0.0039270953 -0.09987115 0.027162794 -0.29229772 -0.12210196 -0.017282994 0.33423725 -0.20213923 -0.05762266 0.10091942 -0.1667789 0.094389245 -0.19534312 -0.03311148 0.0343362 -0.15067704 -0.26344135 0.06662275 0.032460432 0.2602898 0.11755564 0.05766128 -0.04069384 -0.16590989 -0.19198132 0.23207404 -0.19185793 -0.22182694 -0.0018908473 0.09164528 -0.058695458 -0.033859372 0.16518266 -0.056630526 -0.29808137 0.15693639 -0.020030692 -0.23385584 0.043712847 -0.012414063 0.04831171 0.108353384 0.11941948 -0.11539019 0.097154535 0.10288036 0.026841579 0.17670377 -0.27989492 -0.25058758 0.07888718 0.07242261 -0.24971654 0.02072736 0.38380244 0.22885813 0.003341416 0.062381845 0.082223214 -0.08192731 0.025088625 0.31585464 0.07445883 0.292685 0.2152123 0.13974161 -0.08236194 -0.21337475 0.17173932 -0.045393527 0.035922308 0.36413276 0.13174342 0.17963871 -0.11513364 0.22027932 0.19728307 -0.2105303 0.04620404 0.14246577
cultivated -0.04954369 0.121958345 0.3030315 0.012316234 -0.08658839 0.059307776 0.10371592 0.0456787 0.039155956 0.31170654 -0.105043985 0.12167214 -0.03389455 0.020163992 -0.088702634 -0.1934088 -0.15204644 0.3138677 0.021347165 0.21750422 0.007494064 -0.08105725 0.021372912 -0.23366389 -0.09200528 -0.019701643 0.2568023 -0.15071858 -0.053536236 0.08103191 -0.12138339 0.07937731 -0.15253489 -0.027157258 0.021205058 -0.11511625 -0.1991489 0.051237907 0.02264496 0.20135367 0.08989247 0.04086995 -0.032565672 -0.12920478 -0.14771974 0.1817425 -0.14686182 -0.16467334 -0.006441514 0.069400094 -0.04583031 -0.02657884 0.12478384 -0.043705937 -0.23922487 0.12150052 -0.010546033 -0.17951773 0.032337163 -0.009199192 0.033049043 0.08229607 0.10012462 -0.084523454 0.07603645 0.0822412 0.022870261 0.14536132 -0.2156278 -0.19087543 0.062099703 0.061974537 -0.19509333 0.01740621 0.29093707 0.18136162 0.008433212 0.049384527 0.07024509 -0.06832779 0.021618789 0.24272539 0.062061485 0.22971857 0.17044178 0.11001066 -0.065012954 -0.16931899 0.13193229 -0.033479385 0.032995302 0.27875736 0.09638482 0.13507025 -0.090438284 0.17001529 0.15117843 -0.16108745 0.038448237 0.10414736
rice -0.04295259 0.10278022 0.25090823 0.012517905 -0.06923933 0.045166336 0.085342996 0.03417222 0.024295108 0.25456315 -0.090521134 0.09976493 -0.02365558 0.015913758 -0.072416574 -0.15558042 -0.12319697 0.2586123 0.015181412 0.17750141 0.009122965 -0.07041919 0.019800307 -0.1883346 -0.07116877 -0.01579835 0.20752434 -0.1261245 -0.038401768 0.06317666 -0.10506363 0.060432296 -0.11980913 -0.02130788 0.015740428 -0.092583664 -0.16440527 0.040234532 0.020130962 0.16073392 0.07851452 0.040531773 -0.032994095 -0.106983274 -0.11791541 0.15456097 -0.116356716 -0.14206117 -0.0031073967 0.057395846 -0.038690045 -0.022846365 0.100093864 -0.029682247 -0.19163676 0.092669725 -0.0072392225 -0.14523126 0.029744513 -0.010435067 0.025442442 0.070423506 0.081669696 -0.072587006 0.05323448 0.06573021 0.025081469 0.114136524 -0.17455332 -0.1602618 0.050958116 0.05256709 -0.15857977 0.013965909 0.23843005 0.14638688 0.0076106656 0.037999414 0.055193048 -0.057236236 0.018517742 0.20510532 0.045683432 0.19272058 0.13916509 0.08703664 -0.0586698 -0.13649699 0.10894955 -0.020577185 0.029940067 0.22856814 0.07871511 0.11733457 -0.06630913 0.14182936 0.12634568 -0.12979068 0.036172055 0.08357818
from -0.054314338 0.15236813 0.36602834 0.015584833 -0.10287113 0.069075026 0.120154284 0.058715258 0.04449609 0.37807652 -0.13238823 0.14856985 -0.04301748 0.03286834 -0.10498509 -0.24140337 -0.18306237 0.38196862 0.030364828 0.2573289 0.008376417 -0.10221573 0.027149515 -0.27859655 -0.11106091 -0.022426354 0.31716064 -0.18644756 -0.058146223 0.099484846 -0.15469052 0.094756246 -0.18718734 -0.03500678 0.02947853 -0.14098954 -0.24968898 0.06329653 0.03073154 0.244173 0.11278443 0.052058287 -0.038976364 -0.15021318 -0.18650754 0.22005393 -0.18214953 -0.2013111 -0.0055158995 0.085946284 -0.05907381 -0.030139152 0.15736532 -0.047709644 -0.2796488 0.14276785 -0.014049165 -0.21675391 0.03376037 -0.007557531 0.046431858 0.10331396 0.11821251 -0.106908314 0.09055936 0.09385432 0.027310198 0.16897549 -0.2629244 -0.23644866 0.0684565 0.069082215 -0.2334675 0.014845037 0.36284363 0.21509326 0.0046635545 0.061729763 0.07576293 -0.07797656 0.026166635 0.30131677 0.071953885 0.28154382 0.20213068 0.13337518 -0.08111325 -0.1994483 0.16193946 -0.03467382 0.040359158 0.337755 0.12304211 0.16677001 -0.10577869 0.2148813 0.18720384 -0.19448212 0.04285598 0.12953994
by -0.06538229 0.16863945 0.41311646 0.010952123 -0.12195736 0.08455258 0.141155 0.06350368 0.0423013 0.43496346 -0.14798734 0.17101805 -0.048897 0.035632305 -0.124360576 -0.27055785 -0.20947431 0.42964715 0.03138994 0.3003552 0.010222861 -0.11640584 0.035294134 -0.31994662 -0.1296511 -0.018803615 0.36127916 -0.21655807 -0.069499716 0.11726619 -0.17816684 0.109492645 -0.20474423 -0.04253225 0.031683758 -0.1550542 -0.27856362 0.06904386 0.040134367 0.27769914 0.13473189 0.0647522 -0.046744242 -0.17082937 -0.21181205 0.25548202 -0.2040293 -0.23020732 -0.0056024743 0.10614729 -0.05967222 -0.03502402 0.17771235 -0.053332355 -0.32059497 0.16448434 -0.020424744 -0.24970008 0.04493131 -0.0145807685 0.05384403 0.11321066 0.13510355 -0.12170165 0.09432599 0.11000217 0.02876314 0.19928685 -0.29759482 -0.27050155 0.084308684 0.07674057 -0.2670261 0.020836119 0.4044465 0.24595366 0.0056968974 0.07299799 0.08649326 -0.08661903 0.027300004 0.3366009 0.0813992 0.31425503 0.22927041 0.1567793 -0.093741044 -0.22548836 0.18638338 -0.041725703 0.040692125 0.39317584 0.1346587 0.19227642 -0.11596301 0.23944102 0.21019226 -0.22113264 0.057130646 0.15088806
that -0.0639435 0.1645195 0.388555 0.013178281 -0.10920502 0.08027727 0.1266955 0.061469674 0.042222336 0.4019295 -0.13906023 0.15480891 -0.038488176 0.026162757 -0.1121371 -0.2445812 -0.19170462 0.396921 0.03239633 0.27363056 0.0044968664 -0.10384492 0.03198829 -0.29685405 -0.1196881 -0.01653218 0.328936 -0.19519037 -0.06651865 0.10529984 -0.15968458 0.10053687 -0.19749188 -0.037241183 0.02524106 -0.14699382 -0.2605574 0.064536266 0.028077848 0.25513816 0.121128485 0.057025436 -0.039585534 -0.15896901 -0.19650264 0.23246759 -0.1913537 -0.21297215 0.0020225008 0.09274334 -0.053786702 -0.031521413 0.16294621 -0.046692625 -0.30199024 0.14784665 -0.014109797 -0.22977827 0.037730433 -0.0071369433 0.04464446 0.1041066 0.119334646 -0.110009536 0.090414286 0.10325904 0.035897933 0.18283454 -0.27319312 -0.24418761 0.076853484 0.07346926 -0.24546707 0.01889643 0.3785939 0.2238066 0.008529593 0.0705723 0.088207066 -0.080117784 0.026062325 0.310406 0.07407809 0.2940672 0.21382028 0.13929899 -0.08440782 -0.21322349 0.17689733 -0.041533608 0.044211738 0.35875732 0.12974125 0.17433797 -0.11628444 0.22452375 0.19155745 -0.20947687 0.052850954 0.13686304
states -0.06187266 0.14812142 0.3567478 0.011956622 -0.10579593 0.07623645 0.115189046 0.05327433 0.042996086 0.37669095 -0.13083358 0.14628226 -0.0440239 0.029457083 -0.10530921 -0.23817879 -0.1852254 0.37843254 0.026170311 0.26062793 0.006654651 -0.09838034 0.03428435 -0.27675223 -0.105743624 -0.015628003 0.31283998 -0.18394183 -0.05727216 0.09468705 -0.14898571 0.088543706 -0.18559115 -0.03493366 0.0270693 -0.1377708 -0.24555823 0.05961231 0.0354659 0.24460799 0.11541414 0.056605548 -0.038280144 -0.1480196 -0.18282892 0.22212142 -0.17734835 -0.20742638 0.0013296414 0.0933059 -0.05818722 -0.031408332 0.15231498 -0.04432974 -0.28621364 0.1467759 -0.019118616 -0.21054082 0.03787837 -0.0049798856 0.048352815 0.099802144 0.11444704 -0.09979275 0.08321083 0.0933199 0.026530802 0.1729851 -0.25953597 -0.23708549 0.0699399 0.06868978 -0.22650033 0.014493738 0.35545394 0.21492216 0.008103734 0.06119842 0.0739968 -0.07805844 0.024445549 0.296645 0.067260146 0.27786535 0.20350069 0.13656233 -0.07766003 -0.20100912 0.16611946 -0.037558645 0.041170772 0.3375458 0.12030347 0.16869885 -0.10260987 0.20565866 0.17876537 -0.19802473 0.05132275 0.12412557
also -0.056030713 0.14427969 0.3378822 0.009024548 -0.10157867 0.064472735 0.10812827 0.049497794 0.042876963 0.3577181 -0.12491782 0.13645388 -0.03503347 0.031626716 -0.09843791 -0.22120294 -0.17042463 0.35563955 0.027600797 0.24854717 0.011681 -0.09076948 0.028301379 -0.25735572 -0.106524594 -0.016038485 0.29267368 -0.17756112 -0.05053759 0.09731954 -0.14278556 0.08963466 -0.17086864 -0.03013329 0.02318473 -0.13206278 -0.22670832 0.058269598 0.030528415 0.23389143 0.10602079 0.050914586 -0.0384961 -0.14382063 -0.16946249 0.20861034 -0.16327779 -0.19157544 -0.004698346 0.08129859 -0.05026726 -0.030881861 0.14126907 -0.04966093 -0.2700299 0.13100038 -0.018911865 -0.19949847 0.036078144 -0.011780227 0.039766833 0.09101953 0.11376188 -0.09775123 0.07797729 0.09196726 0.027085716 0.15962404 -0.24952546 -0.221836 0.069050476 0.069513954 -0.21753553 0.016303523 0.3379932 0.20259608 0.008454363 0.057384662 0.076688014 -0.070617735 0.02051405 0.27679536 0.06813832 0.2631768 0.18987449 0.11992662 -0.080228224 -0.18802796 0.15808798 -0.036684863 0.034913514 0.31580096 0.11527785 0.16013187 -0.101110816 0.19705968 0.17156854 -0.18091136 0.048566908 0.12518558
cultivation -0.04048717 0.11939565 0.28141716 0.014340559 -0.08319477 0.055590473 0.090345606 0.046781883 0.029160203 0.2897337 -0.09761916 0.11123442 -0.02521627 0.02347473 -0.08085268 -0.1827483 -0.14218499 0.29098204 0.017335014 0.19461663 0.0072227777 -0.07143414 0.027384082 -0.21465273 -0.082305 -0.017721511 0.24170454 -0.13815023 -0.042160332 0.070907176 -0.114292406 0.07096331 -0.1416778 -0.020936213 0.025846075 -0.10931508 -0.18599328 0.042619772 0.026366273 0.18150899 0.08555524 0.042378753 -0.03300649 -0.11920451 -0.13476817 0.1712057 -0.13227919 -0.15778029 0.00038660373 0.06816054 -0.044798706 -0.019880826 0.11968483 -0.038495548 -0.21149112 0.10976469 -0.012676595 -0.16469288 0.033769064 -0.006742678 0.032192323 0.07238567 0.092091985 -0.080485456 0.068938315 0.07318855 0.022207743 0.1353565 -0.20055023 -0.17560126 0.051720228 0.055244952 -0.1825016 0.015604961 0.27416027 0.1584001 0.0013550421 0.0497213 0.06222654 -0.058497496 0.01979617 0.2279839 0.0568705 0.21354555 0.15506938 0.09956884 -0.062689565 -0.15523393 0.12750235 -0.0298651 0.02904953 0.26008275 0.09269725 0.12333896 -0.07653021 0.16163506 0.14112994 -0.15091808 0.038553752 0.10002169
per -0.061507083 0.1529573 0.37387726 0.011869582 -0.102180354 0.074836046 0.11998029 0.063412786 0.047200058 0.3840092 -0.1296545 0.15146255 -0.037769705 0.028967388 -0.10484073 -0.2432311 -0.19350077 0.39210767 0.034618434 0.27274823 0.0061444794 -0.099046834 0.028552152 -0.2825496 -0.111446954 -0.021677215 0.32585153 -0.19378723 -0.063809864 0.097766325 -0.16173154 0.09414608 -0.18500677 -0.039787285 0.024666067 -0.14550054 -0.25062186 0.06708981 0.03666534 0.24676639 0.12196417 0.060577348 -0.04598464 -0.15727945 -0.19172986 0.2256358 -0.18553747 -0.2102059 0.00021482301 0.09528991 -0.061331477 -0.026359865 0.15891697 -0.04686137 -0.2925959 0.15339826 -0.02133403 -0.22701256 0.042946856 -0.0072853756 0.04517021 0.101797774 0.1234848 -0.10605275 0.09205809 0.105533384 0.03211659 0.17090927 -0.2728092 -0.23930971 0.074287616 0.07561445 -0.24329492 0.016953025 0.3665999 0.21443784 0.0009291988 0.062097933 0.07923942 -0.08414213 0.02088557 0.30834535 0.076294355 0.28530967 0.20832857 0.13913918 -0.07859076 -0.20732105 0.17087348 -0.035210807 0.040372908 0.34488773 0.12459303 0.16901001 -0.1078613 0.21746437 0.18519789 -0.19673094 0.050050244 0.13456699
which -0.055924587 0.14662191 0.35749865 0.010428646 -0.09684239 0.06884804 0.11627299 0.060319874 0.036483012 0.3647881 -0.1296437 0.14203496 -0.03803013 0.033585973 -0.10542867 -0.2333965 -0.18405959 0.3639988 0.02385783 0.25733784 0.005165245 -0.09915695 0.029418087 -0.26586086 -0.11123565 -0.016633797 0.29938713 -0.18128933 -0.054371994 0.09694221 -0.14601563 0.08927104 -0.17972144 -0.035354372 0.023631888 -0.13344356 -0.23620024 0.0578925 0.026594061 0.23177068 0.10557713 0.05186085 -0.040801197 -0.14242983 -0.17884238 0.2175691 -0.17222369 -0.19337541 -0.0041971128 0.088743515 -0.054647807 -0.028653163 0.14736757 -0.04361194 -0.27204108 0.14370447 -0.0124945985 -0.20559062 0.04143165 -0.013427821 0.046412505 0.09792441 0.11663277 -0.09798371 0.08509664 0.097726636 0.03252602 0.17073123 -0.2572842 -0.23042914 0.07298002 0.068875775 -0.2270967 0.014221603 0.3464072 0.20890535 0.004670782 0.06060837 0.08010983 -0.0726635 0.02535132 0.28971106 0.069990985 0.27269837 0.1976536 0.13111684 -0.08101539 -0.19400525 0.16006097 -0.040820967 0.04003201 0.33565804 0.11706019 0.15867011 -0.10542914 0.19780885 0.18133171 -0.18732555 0.044634253 0.12743326
used -0.047059454 0.11687415 0.28530198 0.011995451 -0.086760275 0.05687815 0.090702444 0.041116722 0.03513783 0.2931963 -0.0996896 0.11350947 -0.034112103 0.026700053 -0.0788956 -0.18471228 -0.14673312 0.29420742 0.020470757 0.20651866 0.010099699 -0.0795377 0.025143588 -0.21249472 -0.09050165 -0.015951434 0.24705634 -0.14389826 -0.04988885 0.07302447 -0.11488041 0.07575524 -0.14167267 -0.029662348 0.023731396 -0.10682467 -0.19130656 0.04468997 0.028185127 0.1929192 0.08438758 0.0450876 -0.03252468 -0.117731296 -0.14195238 0.17482765 -0.1388665 -0.15895197 -0.0008655066 0.07071955 -0.044913556 -0.027228182 0.11609175 -0.034913562 -0.22221677 0.11165977 -0.018321875 -0.16600554 0.029108616 -0.0027847388 0.03868832 0.07140488 0.09145243 -0.08482735 0.06959206 0.07963391 0.0245329 0.13261373 -0.20445088 -0.18089078 0.054639608 0.057318073 -0.18153927 0.013591035 0.28221044 0.16540785 0.0076541216 0.047065098 0.05838814 -0.06373894 0.024703119 0.22658099 0.05595611 0.21475977 0.15646468 0.10263199 -0.059688788 -0.1599036 0.13087921 -0.028539065 0.03102043 0.26256225 0.09515361 0.12592104 -0.0869737 0.16687147 0.13942444 -0.15014997 0.035921387 0.10468258
during -0.06926622 0.17598301 0.4313311 0.018719032 -0.12122803 0.0850859 0.14664392 0.07078359 0.05063641 0.44723424 -0.15056239 0.17358579 -0.046269145 0.032866832 -0.1302319 -0.27625215 -0.22547214 0.45020357 0.029638944 0.3060738 0.0038504952 -0.11944405 0.0361704 -0.32773066 -0.13333444 -0.017685045 0.37409064 -0.21839488 -0.070285164 0.119719215 -0.18256813 0.11425303 -0.21345223 -0.040064506 0.02911302 -0.16420051 -0.29018462 0.06885399 0.038773004 0.29460573 0.13652204 0.059947394 -0.053093 -0.17698933 -0.21205702 0.26931274 -0.21541527 -0.24312606 -0.0054178857 0.10389603 -0.064556874 -0.040094525 0.18092678 -0.053411454 -0.34257835 0.16812457 -0.017816234 -0.2549444 0.04508208 -0.0068036546 0.052151863 0.1157114 0.13485295 -0.12826988 0.105051175 0.11135525 0.03794794 0.2050879 -0.30686703 -0.282333 0.082418695 0.08370942 -0.28109607 0.023241851 0.4242408 0.2579615 0.008898526 0.08012045 0.09109112 -0.092371605 0.03320191 0.3520758 0.0900411 0.32692686 0.23890209 0.15923837 -0.09791259 -0.24516141 0.19313556 -0.050630428 0.042725034 0.41027164 0.14240317 0.1944028 -0.12609798 0.24979453 0.21512243 -0.23622273 0.052996606 0.15282302
soil -0.04712362 0.13293663 0.32331818 0.007949531 -0.09194308 0.071060695 0.110082194 0.056464616 0.041971885 0.34312057 -0.11893432 0.1316698 -0.030722903 0.026368173 -0.09579089 -0.21700567 -0.16662236 0.33457434 0.027679794 0.23515381 0.0076330043 -0.088952474 0.02591311 -0.24688116 -0.09716041 -0.0137278875 0.28379443 -0.16813451 -0.052934434 0.08518003 -0.13247247 0.08228565 -0.16759585 -0.031462938 0.027804606 -0.1233247 -0.22511162 0.055662453 0.023661146 0.2153169 0.09707794 0.047777478 -0.036485363 -0.1410803 -0.16006888 0.19921634 -0.16418253 -0.18591528 -0.0046165762 0.0810998 -0.05026662 -0.03223374 0.13600086 -0.039632503 -0.25613013 0.12824555 -0.016049873 -0.19884165 0.03360442 -0.0066901697 0.039165925 0.089454666 0.103833035 -0.0946833 0.072299525 0.0848895 0.027090115 0.15512016 -0.23345073 -0.21300255 0.062422827 0.061294727 -0.2132998 0.012026568 0.32231483 0.19022414 0.008666062 0.05448261 0.06951093 -0.07482253 0.017240025 0.2672612 0.06374524 0.24672903 0.18223917 0.1198723 -0.07026942 -0.17853719 0.15037213 -0.037432697 0.0358562 0.31034395 0.11401275 0.15101585 -0.09008774 0.18500212 0.16433328 -0.17176306 0.039946947 0.11790756
but -0.05589654 0.15234831 0.3646709 0.012950694 -0.10633688 0.077890046 0.12087489 0.057851832 0.037369613 0.38151863 -0.13433819 0.15255326 -0.03673629 0.029633928 -0.10726293 -0.23823287 -0.18529545 0.38462427 0.028681388 0.26400614 0.011844942 -0.1017094 0.026536241 -0.27711266 -0.11666148 -0.013423789 0.31960586 -0.18832521 -0.061691385 0.10490877 -0.15164664 0.08909112 -0.189887 -0.03797504 0.032926824 -0.14452885 -0.24907692 0.059348915 0.029968541 0.24288495 0.114428885 0.056796122 -0.041585833 -0.1570765 -0.18479948 0.22824228 -0.17730272 -0.20392367 -0.005662364 0.09107288 -0.060075123 -0.031367768 0.15959454 -0.046355736 -0.2874999 0.14516649 -0.014274208 -0.21797384 0.037236106 -0.008048784 0.044586737 0.09559261 0.11795189 -0.10422376 0.08457209 0.10219354 0.0332193 0.17819707 -0.2657239 -0.23747459 0.06786576 0.077326655 -0.23516995 0.013902076 0.36301556 0.2167206 0.010077167 0.06672722 0.08394865 -0.08067432 0.02912926 0.30201286 0.07176702 0.2813012 0.20057605 0.13401505 -0.08233762 -0.20871937 0.1656971 -0.03493324 0.034800563 0.3470642 0.11978985 0.16531202 -0.11204914 0.21346717 0.18841922 -0.20215923 0.045036733 0.1279859
other -0.04570461 0.10964218 0.26649803 0.00846174 -0.073648885 0.05473674 0.08652757 0.04300037 0.03387805 0.27582172 -0.088292204 0.10984989 -0.02752095 0.025855763 -0.07513283 -0.17098048 -0.13790475 0.2722479 0.025169043 0.1875855 0.0036844749 -0.06974625 0.021792779 -0.20287947 -0.07788663 -0.013651634 0.22987622 -0.13741821 -0.039558318 0.073821604 -0.11516359 0.07033994 -0.1349266 -0.02603713 0.021066124 -0.100359045 -0.1796116 0.040911146 0.021958724 0.17757286 0.0784001 0.043963518 -0.03303587 -0.114048585 -0.13243221 0.16393544 -0.12766793 -0.14545365 -0.003331908 0.06463674 -0.043170586 -0.024420269 0.106663324 -0.036069397 -0.20563845 0.10789637 -0.016110081 -0.15671813 0.02766201 -0.0042933905 0.033024002 0.069418184 0.08093567 -0.0776303 0.058144774 0.07029385 0.022782305 0.12189336 -0.1882186 -0.16894168 0.052769233 0.05460691 -0.16736962 0.009232864 0.25293487 0.15848553 0.0013029993 0.04759468 0.054673478 -0.061827976 0.014208085 0.21267723 0.049778197 0.20068961 0.14402284 0.09619113 -0.061640352 -0.14877422 0.121825986 -0.02332993 0.029788109 0.24402533 0.085067935 0.12382997 -0.07152068 0.1518629 0.1281554 -0.13553497 0.038997218 0.09168697
most -0.042045794 0.10711068 0.24952614 0.013341775 -0.070608504 0.045402296 0.08172502 0.039956775 0.022996906 0.2590944 -0.09241997 0.103667185 -0.031156661 0.019456234 -0.07708886 -0.15485577 -0.12679297 0.25910258 0.022232568 0.17514499 -8.8482135e-05 -0.07037212 0.018386018 -0.1854536 -0.070942566 -0.016883941 0.21586633 -0.12732278 -0.035913456 0.068350464 -0.09986359 0.059768327 -0.1258673 -0.019573417 0.022626912 -0.09770167 -0.1661279 0.035956543 0.02031572 0.16667996 0.075630955 0.0409708 -0.032425724 -0.10539702 -0.12571782 0.15511572 -0.12126502 -0.14147975 -0.0019427375 0.05965808 -0.034330726 -0.024361305 0.09816888 -0.03262885 -0.1868637 0.091977686 -0.008642242 -0.14461772 0.030496236 -0.0013221321 0.027077593 0.06785795 0.0763489 -0.07566146 0.061732735 0.061121978 0.014706979 0.11760049 -0.17566696 -0.1539444 0.044817008 0.0494382 -0.15477769 0.008779165 0.23639356 0.14388275 0.0005425704 0.04580565 0.05809328 -0.052313205 0.016606746 0.20070869 0.04633211 0.1871415 0.13281357 0.090264544 -0.050029673 -0.14071552 0.114160694 -0.028785894 0.023513265 0.22968477 0.08438289 0.10697498 -0.066534504 0.13840732 0.117539115 -0.13585615 0.035609778 0.09042973
rabi -0.040642317 0.109555505 0.2505665 0.012897593 -0.07603605 0.051510192 0.08331668 0.041747056 0.023411855 0.26151615 -0.09054867 0.09851646 -0.028550092 0.018763658 -0.069848515 -0.15707155 -0.13185066 0.26412454 0.02079168 0.17536885 0.009163202 -0.06697346 0.025790093 -0.19404079 -0.07428377 -0.0127704 0.21096328 -0.13175637 -0.04128955 0.06469581 -0.10528216 0.06138209 -0.12716162 -0.018037181 0.017218385 -0.096929505 -0.16700526 0.041855995 0.021247655 0.17057537 0.074388176 0.04112582 -0.027628612 -0.10674963 -0.12444089 0.15168741 -0.12310967 -0.14056982 0.0015660903 0.059629582 -0.032749735 -0.016017638 0.103641234 -0.028535174 -0.19923691 0.10046579 -0.017093698 -0.14775306 0.028108874 -0.008656889 0.024984775 0.07301176 0.078987025 -0.07060603 0.064647004 0.06967856 0.018745515 0.12257592 -0.18391424 -0.16401774 0.045401894 0.051049907 -0.1585166 0.008625454 0.24641971 0.1516427 0.0052890833 0.046950046 0.05180519 -0.059949473 0.01666891 0.20756233 0.04472007 0.19510198 0.13779485 0.09077102 -0.055198617 -0.14295986 0.116855174 -0.023115767 0.030820256 0.23992585 0.08131921 0.11928112 -0.07740096 0.14397436 0.12432727 -0.12940553 0.028057953 0.0939928
oilseeds -0.037113205 0.094203 0.22070116 0.004833541 -0.06029326 0.05010306 0.074609004 0.035152152 0.029622324 0.23496646 -0.08242511 0.08871453 -0.028241547 0.018548395 -0.06436794 -0.14538462 -0.11665544 0.2285887 0.013805224 0.16193949 0.005571889 -0.06341919 0.01545396 -0.17570847 -0.06610787 -0.010948496 0.19340539 -0.11756235 -0.035032075 0.060958926 -0.09766274 0.054938033 -0.1112683 -0.01908105 0.019757 -0.0890298 -0.15438432 0.03646396 0.021987798 0.15405473 0.07263468 0.03597585 -0.030463988 -0.097939394 -0.11428207 0.13319354 -0.107460365 -0.12599511 -0.0021601696 0.06078814 -0.03261404 -0.022601116 0.09415264 -0.025937159 -0.17525773 0.08328415 -0.0063249427 -0.13264112 0.028875036 -0.0086731715 0.02316525 0.061239377 0.07128835 -0.063737154 0.048977565 0.06438605 0.016043255 0.11012477 -0.16009754 -0.14712432 0.043306172 0.040904105 -0.1460077 0.013296685 0.22457553 0.1284185 -0.00013743696 0.036194608 0.046661098 -0.053542268 0.014496365 0.18123654 0.04805986 0.17440487 0.12751189 0.08062382 -0.052473634 -0.12116071 0.10356131 -0.028797958 0.02303305 0.21440737 0.07344689 0.10752011 -0.06882963 0.13293134 0.11425565 -0.11576624 0.025860941 0.076790825
tea -0.046040412 0.11697083 0.272956 0.011889012 -0.07598395 0.056895588 0.08849129 0.038125124 0.032089774 0.2799165 -0.090607785 0.10373203 -0.031549044 0.024142006 -0.083043486 -0.17955948 -0.13452032 0.27947974 0.025795298 0.19337928 0.0038705443 -0.069295 0.023032876 -0.20268913 -0.085805565 -0.012232645 0.23305109 -0.1400861 -0.04160844 0.073608875 -0.11642996 0.067289315 -0.13494676 -0.029332925 0.016142413 -0.09808658 -0.18358725 0.043053027 0.018223379 0.1836436 0.08610309 0.036889255 -0.032115534 -0.11189764 -0.13948494 0.16141005 -0.12746759 -0.14869085 -0.0050650244 0.06872543 -0.03969357 -0.02474084 0.11307936 -0.03713093 -0.20773566 0.10591791 -0.0083924495 -0.16361637 0.026261222 -0.0039917175 0.034378514 0.0681272 0.086733244 -0.081613556 0.0677126 0.075283885 0.017820131 0.13107604 -0.19345306 -0.17866409 0.05228667 0.050801985 -0.17213665 0.015556683 0.2618431 0.15706342 0.0019283997 0.04904624 0.059540324 -0.060279176 0.017139688 0.21957433 0.056313172 0.20923692 0.1468324 0.10137295 -0.055526283 -0.14506239 0.11902836 -0.027874699 0.031632204 0.25003964 0.087795645 0.12595893 -0.083065055 0.1503948 0.13496925 -0.13913372 0.033461157 0.09380477
about -0.047581278 0.13081439 0.2983075 0.010023574 -0.085861534 0.059641603 0.10342115 0.0453268 0.03338062 0.30861583 -0.10350343 0.11860292 -0.027661122 0.023322245 -0.0933377 -0.19435327 -0.15191314 0.31695163 0.018900964 0.22044224 0.0073515708 -0.081235096 0.021271843 -0.23323272 -0.09339348 -0.01908566 0.26082942 -0.15427631 -0.051066753 0.08131733 -0.12830698 0.07632741 -0.15663096 -0.030707536 0.019164743 -0.11961574 -0.2060222 0.05511284 0.031228382 0.20234141 0.093726166 0.039992314 -0.032684885 -0.12180977 -0.14941858 0.18479083 -0.14287591 -0.16771996 0.0005782774 0.07752895 -0.046684135 -0.02455101 0.1304947 -0.041518584 -0.23891568 0.12430164 -0.017771551 -0.17747661 0.027996814 -0.0036025394 0.03154241 0.07803281 0.094641834 -0.085077435 0.071332656 0.08205501 0.024202636 0.13948302 -0.21746068 -0.19181274 0.05780578 0.06376471 -0.18921262 0.010745325 0.29601312 0.17525801 0.008110422 0.050715815 0.06569568 -0.0705082 0.02485158 0.24661832 0.05937853 0.23429155 0.1679428 0.10802472 -0.070494674 -0.16670051 0.13436331 -0.034484603 0.029446865 0.28102612 0.10510132 0.13539447 -0.08744514 0.17190278 0.15603738 -0.16612136 0.042961385 0.104190044
cereals -0.04161595 0.10155992 0.2369935 0.0041123303 -0.06450343 0.046857536 0.07690767 0.0420712 0.022295713 0.24246304 -0.08104306 0.09081499 -0.025450915 0.014906817 -0.064879574 -0.15585425 -0.11571447 0.2400218 0.016716868 0.1706587 0.0054414333 -0.06709646 0.02318253 -0.17719595 -0.07127884 -0.014157313 0.20135976 -0.12350802 -0.03527419 0.06026406 -0.10358242 0.062465716 -0.11439885 -0.016379608 0.022872027 -0.090477236 -0.16187692 0.039845746 0.015975276 0.16175552 0.071723424 0.035211824 -0.029911635 -0.10194062 -0.11613589 0.14588757 -0.11497212 -0.13559264 0.000698597 0.06003939 -0.036959063 -0.020019908 0.10147476 -0.029978063 -0.1882151 0.091948815 -0.0155780325 -0.14289677 0.024943197 -0.007825655 0.026058506 0.06048792 0.07906467 -0.06508982 0.056643274 0.063359715 0.017300736 0.10751645 -0.16418353 -0.14833194 0.048135996 0.04106957 -0.15514407 0.0055119777 0.23407905 0.13412875 0.0042936387 0.036949623 0.05360796 -0.051770553 0.018898608 0.18704718 0.04451882 0.18153903 0.13044663 0.08674026 -0.05706286 -0.12666507 0.10114421 -0.029622603 0.02002039 0.21662228 0.07341709 0.111915395 -0.0726705 0.13299666 0.117052235 -0.13092273 0.034411773 0.080871396
kerala -0.037993364 0.11091911 0.26081383 0.011703601 -0.0757356 0.0566117 0.08659761 0.044442166 0.02934101 0.27714872 -0.09239092 0.10545443 -0.027006239 0.01902435 -0.083227985 -0.16687725 -0.13430637 0.27164152 0.025349965 0.19098791 0.0036666056 -0.070509695 0.020216573 -0.20613301 -0.079251096 -0.01227643 0.22908902 -0.13356595 -0.03999232 0.0739269 -0.10682167 0.065077625 -0.13440078 -0.024770482 0.015755448 -0.09974704 -0.1766719 0.041441534 0.01969871 0.1723928 0.08291299 0.03616154 -0.032280155 -0.1113976 -0.13497727 0.16296066 -0.13039193 -0.14591229 -0.000455069 0.06636756 -0.042276762 -0.024479143 0.11406403 -0.040005572 -0.20886533 0.100159116 -0.016384583 -0.16211924 0.027383847 -0.011454293 0.03231888 0.06693644 0.089592524 -0.07297696 0.06454804 0.0667944 0.023053477 0.1243871 -0.19389957 -0.16820271 0.053724665 0.05201656 -0.16543142 0.011557958 0.25771755 0.15964335 0.0036640184 0.041632354 0.061857216 -0.06324154 0.02278054 0.21975458 0.051378924 0.20186393 0.1488178 0.09986778 -0.055886365 -0.15113665 0.11385102 -0.030348917 0.030842979 0.24880242 0.08297856 0.11859568 -0.07605635 0.15060617 0.13599056 -0.13802025 0.03322418 0.09123944
jute -0.03555146 0.09134243 0.21090142 0.009015332 -0.062076095 0.037281867 0.069505624 0.028605687 0.021377588 0.21943048 -0.07263538 0.08901035 -0.019414943 0.019932752 -0.061337642 -0.13704099 -0.105081916 0.21837124 0.016410286 0.15085001 0.00038671412 -0.053444687 0.018473195 -0.16350763 -0.05949836 -0.006581186 0.18275216 -0.11020816 -0.031673573 0.05790415 -0.08555105 0.055963457 -0.10925173 -0.02419987 0.019181462 -0.07787991 -0.14678696 0.03247114 0.021456039 0.13680388 0.07067122 0.03210691 -0.027989883 -0.089017674 -0.10010108 0.13036357 -0.10326515 -0.120727 -0.0050985906 0.05687477 -0.027464768 -0.021770425 0.09258693 -0.030334193 -0.16749226 0.08342258 -0.010197202 -0.12397226 0.02629673 -0.007580093 0.028440787 0.056085154 0.068253934 -0.062236074 0.047276434 0.0576503 0.018736871 0.09944129 -0.15367468 -0.13407099 0.038228977 0.040792726 -0.1310791 0.006251352 0.20988844 0.119486906 0.006951413 0.03726278 0.043070894 -0.044283774 0.016690668 0.16971818 0.04128288 0.15533277 0.1143144 0.07813046 -0.051163904 -0.11423593 0.08951337 -0.02046316 0.02575927 0.19589615 0.06620484 0.09420498 -0.055794004 0.12029157 0.10867871 -0.11528239 0.031285215 0.07336181
can -0.03905419 0.11156426 0.28111655 0.012069402 -0.08296353 0.050912544 0.09435466 0.046874173 0.031603113 0.2899453 -0.0978375 0.113309175 -0.024745679 0.01912671 -0.0815909 -0.1788058 -0.14411224 0.29272625 0.018367907 0.19701123 0.009894685 -0.07559176 0.019226793 -0.21695241 -0.08192278 -0.011990035 0.24250953 -0.14384869 -0.041545663 0.077121794 -0.12088821 0.07350787 -0.13961928 -0.025915975 0.017407484 -0.10333436 -0.19267549 0.040961884 0.021849804 0.1884816 0.090703964 0.04508917 -0.027733678 -0.11315429 -0.13858457 0.1691193 -0.13085079 -0.15240292 0.0026319064 0.06388748 -0.037922993 -0.018109344 0.11510992 -0.041280694 -0.2137518 0.10825581 -0.015720787 -0.16427794 0.029105341 -0.008492158 0.03353614 0.08005174 0.083650306 -0.078287154 0.07058905 0.073756844 0.027158638 0.12600912 -0.19881105 -0.18014851 0.052143455 0.050109226 -0.18066685 0.010533279 0.26920408 0.16620798 0.00046939732 0.05123982 0.057476215 -0.056300994 0.022725279 0.22790405 0.055939667 0.20902137 0.15709662 0.09674711 -0.06696131 -0.14944832 0.12630129 -0.0284343 0.025104621 0.263841 0.087473035 0.12153601 -0.07873063 0.16018732 0.13980076 -0.14694521 0.04004249 0.102521345
pulses -0.041757826 0.101516046 0.23361117 0.009281084 -0.06371167 0.048253942 0.07837248 0.03595175 0.027982188 0.24329056 -0.08311452 0.09338768 -0.029288508 0.022159167 -0.065780945 -0.14698024 -0.118562944 0.24773318 0.022750169 0.16829613 0.0040374906 -0.05859469 0.018493062 -0.17377707 -0.068743505 -0.009978156 0.19993538 -0.11795188 -0.036703363 0.06284086 -0.0988657 0.05835955 -0.115016155 -0.020382721 0.01873643 -0.092439264 -0.1608189 0.036984287 0.021254376 0.16225238 0.07759942 0.034443215 -0.02715702 -0.10164895 -0.114738725 0.13881697 -0.115326524 -0.1362507 -0.006321854 0.059233543 -0.0393776 -0.023924679 0.100280456 -0.03338188 -0.1837678 0.09557598 -0.0077418517 -0.14361745 0.022450643 -0.0069726245 0.031251997 0.06258371 0.073276855 -0.070562 0.055781357 0.06586013 0.014079006 0.10982155 -0.16293287 -0.15299776 0.0433928 0.043890107 -0.15092176 0.010701092 0.22517715 0.14205602 0.0031878843 0.035156976 0.04888322 -0.04731105 0.021074116 0.19043386 0.048170775 0.17850733 0.13267568 0.08492563 -0.056498196 -0.12619899 0.10843771 -0.029546356 0.02668154 0.21780473 0.07600005 0.10759182 -0.0723339 0.13207008 0.1161289 -0.13002305 0.026777938 0.079750694
indian -0.034521107 0.10606672 0.24738154 0.006003288 -0.07514358 0.047557496 0.080551356 0.03675193 0.032193433 0.25688192 -0.08894901 0.09786604 -0.029434066 0.019495472 -0.07241442 -0.15731864 -0.122017756 0.25095978 0.022361135 0.17256229 0.009791091 -0.06540995 0.019762963 -0.18618944 -0.07698037 -0.012193483 0.20988238 -0.1287932 -0.043322947 0.06340076 -0.106470026 0.059287056 -0.12131625 -0.026717484 0.023976605 -0.092411876 -0.16143516 0.04196732 0.019867979 0.16930115 0.07966622 0.03650859 -0.033203904 -0.09897261 -0.12251019 0.14957735 -0.11768834 -0.14021263 0.0024477737 0.06528768 -0.042167775 -0.019067006 0.09816393 -0.029356392 -0.19335072 0.09345794 -0.015872043 -0.14454511 0.025352102 -0.0047933855 0.028422352 0.0678109 0.08003338 -0.07328857 0.055795204 0.07070449 0.016449831 0.11887194 -0.17768271 -0.16061619 0.045032043 0.0477578 -0.16266431 0.006758525 0.24363536 0.14211074 4.4132845e-05 0.039007187 0.05662686 -0.054027233 0.021510106 0.19798093 0.046400975 0.18583067 0.13560556 0.09208111 -0.05393915 -0.14074545 0.11055439 -0.025843827 0.025360567 0.22844657 0.0842546 0.113467574 -0.07451862 0.14099851 0.1269109 -0.13205095 0.030928401 0.09222706
areas -0.033072308 0.09012174 0.20899935 0.007937043 -0.06260055 0.03839786 0.07100277 0.038103648 0.02114566 0.22224699 -0.076067224 0.084448114 -0.02144799 0.013259239 -0.06194933 -0.13802789 -0.11287932 0.2253247 0.017816676 0.15060596 -0.0003561561 -0.06049724 0.017200857 -0.1589582 -0.06296914 -0.012876867 0.18021484 -0.11532846 -0.037730917 0.060263123 -0.09267537 0.056737725 -0.104425885 -0.015501031 0.014072733 -0.081205904 -0.14119036 0.036541384 0.01728692 0.14158034 0.06813746 0.028088413 -0.029609071 -0.09360958 -0.10520887 0.13113128 -0.10872178 -0.11906983 -0.0058133556 0.053184345 -0.031935856 -0.020792944 0.09388145 -0.028414536 -0.16977404 0.086746424 -0.010561634 -0.13130212 0.024486523 -0.0064748293 0.027012875 0.05558052 0.06507672 -0.06107228 0.054324053 0.056381423 0.013920704 0.10562374 -0.14996667 -0.13981952 0.043968514 0.045059018 -0.13847893 0.014656077 0.208168 0.12989202 -0.0015616941 0.040880445 0.04561608 -0.045935407 0.018388042 0.17871885 0.041105624 0.16027744 0.12103625 0.078299366 -0.05109751 -0.11593366 0.09871623 -0.026196051 0.019070404 0.19548756 0.071650244 0.10072148 -0.064116344 0.120459616 0.10855972 -0.11765299 0.025700744 0.07162849
their -0.04913456 0.120934814 0.28953305 0.006239819 -0.07792223 0.058982003 0.09016846 0.04055235 0.033319887 0.29665697 -0.10244681 0.11202393 -0.030642066 0.025102273 -0.081425786 -0.18177986 -0.14633746 0.2963142 0.018079964 0.20886436 0.007313745 -0.07922089 0.021725468 -0.21816339 -0.08216222 -0.016876472 0.24243748 -0.15146168 -0.044320904 0.07722478 -0.120235294 0.06928337 -0.14388755 -0.030569725 0.021179186 -0.104260944 -0.19659825 0.043571334 0.02227951 0.19421752 0.09327366 0.04657108 -0.030550791 -0.11778621 -0.1424896 0.17877081 -0.13748017 -0.15845487 -0.0038508177 0.066778846 -0.047762632 -0.021006474 0.12261773 -0.039117042 -0.21941864 0.11037235 -0.015041575 -0.168739 0.03182459 -0.008714516 0.03812523 0.080814905 0.08640318 -0.084497936 0.069781646 0.080458805 0.02263099 0.1365405 -0.2065047 -0.18631707 0.057369158 0.056023408 -0.17904608 0.009986666 0.28280845 0.16824517 0.0011580329 0.0526777 0.065360405 -0.06556938 0.017013261 0.23373865 0.060835555 0.21930836 0.15984268 0.10903373 -0.068288654 -0.15791814 0.13027968 -0.025897747 0.03089965 0.26812863 0.09968022 0.13523355 -0.083583154 0.16586412 0.14462689 -0.15211865 0.042318698 0.10473037
was -0.05341221 0.13623147 0.3203488 0.008643029 -0.08882628 0.06722249 0.102323756 0.055007424 0.036024053 0.3344602 -0.10868052 0.12558097 -0.031784084 0.021457555 -0.08995603 -0.20437837 -0.16005898 0.33163214 0.02538908 0.2251397 0.00412557 -0.08640524 0.030317169 -0.23984379 -0.10190123 -0.011045086 0.27666745 -0.1625846 -0.04792957 0.08531955 -0.13308182 0.081128165 -0.16502 -0.028334768 0.020696718 -0.123286754 -0.21635944 0.051783122 0.026531696 0.21303847 0.10215354 0.048490733 -0.038684934 -0.13429375 -0.16205768 0.19193177 -0.15589328 -0.18152428 -0.0045610564 0.07480501 -0.052712232 -0.022499572 0.13050523 -0.03851671 -0.24992923 0.12994178 -0.017431436 -0.1898819 0.031165158 -0.012978599 0.042475354 0.08683505 0.105419524 -0.09308343 0.07104312 0.08432338 0.021665243 0.15034994 -0.22775054 -0.20392115 0.06652865 0.065438926 -0.20922852 0.016759787 0.3142759 0.18416849 0.002525087 0.050311405 0.06906171 -0.070223205 0.02001619 0.2577474 0.05890398 0.24257943 0.17621794 0.11602656 -0.073695205 -0.17953299 0.14005785 -0.031418223 0.03428801 0.2990425 0.10888248 0.14741008 -0.095203176 0.18549262 0.15571678 -0.17556278 0.039324705 0.11421246
such -0.038492616 0.09706689 0.23105453 0.010003333 -0.06674901 0.04334203 0.076952405 0.033925552 0.028390136 0.24078031 -0.07636475 0.08945418 -0.029657409 0.013920403 -0.06330435 -0.14659028 -0.11692463 0.23468615 0.02036711 0.16013391 0.00048194197 -0.055542566 0.017446067 -0.17090434 -0.06493895 -0.0065155462 0.19352931 -0.1166671 -0.038009062 0.06235026 -0.09765637 0.05807482 -0.11771943 -0.019951265 0.016466951 -0.08812457 -0.15802196 0.03399012 0.020604197 0.14768653 0.07038241 0.0374087 -0.025870604 -0.09005593 -0.115886964 0.1384964 -0.11304345 -0.12833051 0.003190283 0.056282945 -0.032944206 -0.018673303 0.09337929 -0.033147775 -0.18066788 0.0867784 -0.012515627 -0.13156542 0.027063906 -0.00095840177 0.029603273 0.05830063 0.076176 -0.0649333 0.04972783 0.05768185 0.018526653 0.11076976 -0.16583566 -0.14265431 0.050009176 0.042034812 -0.14079913 0.0074570985 0.22565673 0.1348326 0.0017332421 0.042305652 0.04989533 -0.04994799 0.018815398 0.18564086 0.04594646 0.17350845 0.13037308 0.08586878 -0.0512213 -0.12498981 0.10469732 -0.019985886 0.027552143 0.2171961 0.07744397 0.10889424 -0.06267175 0.12577116 0.1184356 -0.12502477 0.035076987 0.08277605
at -0.05776617 0.14404483 0.35236308 0.013809773 -0.10191871 0.06816079 0.11272102 0.05744502 0.040768806 0.3713116 -0.12098732 0.14332584 -0.033771284 0.03314366 -0.10981367 -0.23113294 -0.1844564 0.36409017 0.028887399 0.2501411 0.004525842 -0.09428406 0.034226328 -0.27106813 -0.10464794 -0.018802619 0.30174294 -0.18087213 -0.05332289 0.09497421 -0.15061453 0.08890374 -0.17925404 -0.03587693 0.026680253 -0.13782091 -0.23958704 0.061194345 0.03410088 0.2344982 0.11337129 0.05366082 -0.03869805 -0.14614911 -0.1801497 0.22090046 -0.17668778 -0.20069106 -0.003480893 0.084993325 -0.049358618 -0.02543567 0.14601445 -0.050387315 -0.2728478 0.13670117 -0.021081185 -0.20897731 0.034869667 -0.008816804 0.046774764 0.099384435 0.110032305 -0.10482064 0.0850085 0.09957365 0.031641778 0.1645386 -0.2581948 -0.23176068 0.07528758 0.07344768 -0.22732951 0.01680064 0.3489049 0.20984657 0.005453519 0.05967125 0.07579253 -0.07638272 0.020176668 0.28688434 0.06873972 0.26539585 0.19539128 0.13231498 -0.07593986 -0.19678892 0.1641874 -0.041772325 0.040427163 0.3287084 0.115215294 0.16264544 -0.10761514 0.20361362 0.18202624 -0.19089288 0.042621274 0.12382233
pradesh -0.03693896 0.10713267 0.24902284 0.011015075 -0.06583846 0.04530925 0.07932803 0.036821358 0.024397962 0.25043693 -0.09158006 0.099407986 -0.029833589 0.017964864 -0.07631541 -0.1546573 -0.12365054 0.25692493 0.016202534 0.17868844 0.0015442095 -0.066369645 0.019283317 -0.18145086 -0.077163585 -0.007640692 0.2049133 -0.12620303 -0.034100194 0.060796566 -0.09879947 0.05661987 -0.12521392 -0.021683786 0.017968208 -0.09185087 -0.16057259 0.038042404 0.021992382 0.16044861 0.07396025 0.034596197 -0.029390592 -0.10251904 -0.1178676 0.15234335 -0.11637474 -0.14021544 0.0005386449 0.061927754 -0.036299646 -0.023075571 0.10392405 -0.036514387 -0.19145985 0.09919427 -0.009176306 -0.14179347 0.029232498 -0.007790496 0.025394896 0.06616493 0.07568271 -0.07017162 0.056605004 0.063052885 0.019575711 0.113216415 -0.1728662 -0.15929292 0.04733254 0.051482502 -0.15642162 0.015792744 0.24000095 0.14502916 0.00671787 0.03923468 0.05676543 -0.05873221 0.015124008 0.19564489 0.049309574 0.1901869 0.13879701 0.086807124 -0.05593349 -0.1365026 0.11215175 -0.027372131 0.022249144 0.23124218 0.07818037 0.10902345 -0.07202551 0.14287175 0.12136023 -0.13399324 0.034532394 0.09190858
plantation -0.03967951 0.10090972 0.23766898 0.0034799504 -0.06546413 0.0477807 0.07961323 0.037586357 0.024512997 0.24539292 -0.08756056 0.09512891 -0.024394438 0.014876848 -0.065756984 -0.15561835 -0.11688835 0.2422581 0.022225456 0.17415495 0.001674288 -0.06868562 0.023200542 -0.17905712 -0.068495125 -0.0073561184 0.19970286 -0.124569215 -0.042483784 0.06402049 -0.098060794 0.06238222 -0.122847095 -0.021837179 0.020324705 -0.09233222 -0.1636113 0.036704518 0.016355315 0.1586914 0.07809422 0.03723302 -0.032756746 -0.094537236 -0.11898328 0.14992853 -0.111455284 -0.12933311 -0.0009428286 0.05605817 -0.034527868 -0.021530867 0.10057721 -0.03350601 -0.18474026 0.09068676 -0.007961682 -0.14436686 0.02272223 -0.0091249775 0.02978519 0.06842942 0.076987125 -0.06704227 0.05431844 0.068780854 0.015185271 0.111295156 -0.17512238 -0.15715371 0.04534084 0.04255667 -0.15545583 0.013351293 0.2354425 0.14411306 0.0020499013 0.04475595 0.04787494 -0.054078083 0.015018903 0.19751702 0.042281486 0.18077162 0.13044521 0.0829036 -0.05501519 -0.13619496 0.10615997 -0.02243578 0.028735347 0.21844468 0.07816981 0.10952396 -0.07006912 0.13404533 0.12285286 -0.12875673 0.031900257 0.08061263
millet -0.030199133 0.0817207 0.1902424 0.00953774 -0.05353336 0.036365934 0.063057385 0.032886982 0.024002936 0.19318065 -0.07067857 0.070588686 -0.023815261 0.017012073 -0.05952821 -0.117878154 -0.09013347 0.19356453 0.013611402 0.13407731 0.0022292312 -0.05082989 0.0126226 -0.14217533 -0.05733549 -0.013613141 0.15731113 -0.09964983 -0.028859641 0.04670665 -0.080580786 0.05220085 -0.09060933 -0.018675484 0.013317574 -0.072318435 -0.12670457 0.034388836 0.013677443 0.12569222 0.06311467 0.032305073 -0.025033588 -0.07403209 -0.095316924 0.11239593 -0.09199156 -0.10796003 -0.0029445214 0.049133826 -0.027948076 -0.01349201 0.07402701 -0.023106659 -0.14917871 0.069780126 -0.012662864 -0.10676961 0.015719311 -0.0032380687 0.02545391 0.05149189 0.059282973 -0.050495386 0.041697487 0.051465046 0.015173926 0.084499426 -0.13632278 -0.117256485 0.03489397 0.03985508 -0.116916165 0.0080779465 0.17875645 0.10572861 0.0041193827 0.028803311 0.04467419 -0.03975448 0.011930468 0.15416755 0.03746418 0.1396158 0.10682154 0.068686165 -0.046256438 -0.10212886 0.08755447 -0.023493242 0.016292589 0.17827086 0.060159728 0.0871032 -0.0538137 0.11030384 0.08897661 -0.10373935 0.020304974 0.07060331
millets -0.023298766 0.066534124 0.15641181 0.009341935 -0.049758475 0.035012804 0.04912626 0.026796453 0.015020641 0.1664746 -0.053069115 0.06310082 -0.013196091 0.011133465 -0.051296975 -0.09772075 -0.081397034 0.16470708 0.016273113 0.10690485 0.0082274405 -0.045891836 0.017868178 -0.12035614 -0.04747612 -0.0035960837 0.13149963 -0.08180481 -0.0200474 0.040821213 -0.060510755 0.035968084 -0.075991526 -0.015059839 0.014847425 -0.059491187 -0.10413902 0.02992943 0.009854079 0.10129701 0.049871713 0.025514128 -0.02177169 -0.06630629 -0.07723571 0.09315473 -0.08006796 -0.09160839 0.0039079385 0.03941194 -0.025634736 -0.008536919 0.06259887 -0.015660882 -0.12133499 0.064307764 -0.011570638 -0.09293139 0.019665616 -0.0057512443 0.019722661 0.043426253 0.04884591 -0.04695832 0.0384388 0.042451788 0.008128857 0.07256208 -0.10621445 -0.09802118 0.02953117 0.035357304 -0.10220924 0.0045007174 0.15457262 0.086732626 -0.0006952834 0.02517919 0.032496486 -0.0317255 0.006387634 0.12721556 0.028015032 0.115351126 0.08543036 0.052146394 -0.038532153 -0.085625425 0.07022367 -0.0137775475 0.015199244 0.14872247 0.055606972 0.06955609 -0.04840378 0.0914663 0.078528985 -0.08694796 0.019556183 0.05667116
cent -0.03792993 0.11243811 0.2536444 0.0061827903 -0.0707815 0.05367287 0.08839718 0.0434476 0.032047715 0.26449266 -0.08698291 0.1035159 -0.033132236 0.02144982 -0.07166395 -0.1707557 -0.1323782 0.26456532 0.021852868 0.18394972 0.005486718 -0.0654944 0.01841985 -0.19325975 -0.08186088 -0.016011663 0.22655493 -0.13063197 -0.04470284 0.06667199 -0.10761975 0.068313226 -0.13338093 -0.024771031 0.020181926 -0.09952726 -0.1741901 0.03967732 0.023172835 0.16686508 0.08602624 0.040820803 -0.026976218 -0.11023667 -0.12668602 0.15412633 -0.12342411 -0.14002511 0.0021698321 0.066483915 -0.040688843 -0.02143666 0.105344966 -0.029328078 -0.20442533 0.107505925 -0.012607351 -0.15812373 0.028264498 -0.010373305 0.032400876 0.06943168 0.07818391 -0.07258489 0.05947075 0.065176256 0.019026889 0.12530299 -0.18321896 -0.16267562 0.046296902 0.05118925 -0.16584183 0.016942883 0.25798795 0.14682001 0.0073992633 0.04817396 0.05322853 -0.060402144 0.017308338 0.20790133 0.057040136 0.19684547 0.14164884 0.094281726 -0.05322124 -0.14779685 0.11997564 -0.023339516 0.03203316 0.24392794 0.09133641 0.12041359 -0.078418985 0.14820574 0.12474143 -0.13914542 0.032453153 0.09214096
fruit -0.031190034 0.09153894 0.20799343 0.011608265 -0.065368615 0.03990812 0.072568566 0.036586825 0.027950194 0.22131748 -0.07271264 0.08663112 -0.026060866 0.015378648 -0.05916373 -0.14280142 -0.11010913 0.22226585 0.016571127 0.14955589 0.0003436857 -0.05646294 0.016661637 -0.1613461 -0.06319412 -0.008286881 0.18504 -0.11436939 -0.037596308 0.061608385 -0.09311677 0.052170634 -0.1034388 -0.021262571 0.017301332 -0.07911927 -0.14106712 0.040049464 0.013177285 0.14185575 0.06318762 0.030766051 -0.021478912 -0.08946333 -0.105574 0.1317558 -0.10794317 -0.11674332 -0.0022072904 0.055781566 -0.03575753 -0.015283125 0.08540265 -0.026513789 -0.17022346 0.08761021 -0.0066037234 -0.12250214 0.023072263 -0.0041178293 0.023356596 0.06247136 0.0717074 -0.056598775 0.05343118 0.06108195 0.020863969 0.10510743 -0.14973105 -0.1380231 0.045474946 0.037485834 -0.13590556 0.008326986 0.20820603 0.123150505 0.0066378615 0.04027342 0.042967036 -0.047884934 0.016943391 0.17743938 0.040193226 0.16201566 0.121137515 0.07670858 -0.04844958 -0.11595725 0.09942909 -0.02397136 0.018399667 0.1989213 0.069497325 0.09452508 -0.06026654 0.12261041 0.10507602 -0.11577197 0.025724305 0.07688603
growing -0.030486587 0.0882676 0.21423288 0.011856744 -0.064011246 0.04329178 0.07445544 0.038888182 0.024819696 0.22594559 -0.07241779 0.082569696 -0.02548179 0.0127097005 -0.06027327 -0.1414451 -0.109542355 0.22462727 0.01592385 0.15926027 0.00105871 -0.062038314 0.016203426 -0.16216382 -0.06281043 -0.008395968 0.18705875 -0.10840048 -0.036196403 0.056333255 -0.09325076 0.058406018 -0.113728724 -0.019102694 0.011948192 -0.08473267 -0.14687769 0.037355382 0.014982946 0.14740896 0.062780425 0.032992896 -0.02989266 -0.08812452 -0.10862563 0.13196397 -0.10506594 -0.12369822 -0.0018810406 0.051832046 -0.029157028 -0.019264238 0.08694439 -0.028051525 -0.16937838 0.089576565 -0.012814043 -0.13013938 0.020217929 -0.009430432 0.030097596 0.054989155 0.07133686 -0.060000632 0.05105128 0.054469597 0.014232705 0.10545855 -0.1552471 -0.14048623 0.046027754 0.043989815 -0.14077258 0.01469815 0.21502097 0.12834302 -0.00034244655 0.03559057 0.045417204 -0.046483602 0.01574111 0.17709991 0.03970764 0.16679358 0.1222897 0.08171246 -0.05139488 -0.11596359 0.09461956 -0.022084096 0.019744521 0.1994049 0.07516294 0.10121884 -0.06766117 0.124851525 0.10565768 -0.111976765 0.025527555 0.07522903
country -0.025558198 0.05497234 0.12877189 0.004029294 -0.035027977 0.026481073 0.03966787 0.020540157 0.01188443 0.13560471 -0.04221617 0.056158204 -0.013986249 0.00779655 -0.042381547 -0.08488604 -0.06562703 0.13985793 0.01407026 0.09424213 0.0019010133 -0.03906473 0.013618666 -0.09801782 -0.03701417 -0.009506798 0.10915407 -0.0633595 -0.025395945 0.03332655 -0.05846359 0.03144507 -0.063470386 -0.013244079 0.006858041 -0.052120958 -0.091784455 0.022092957 0.007746652 0.08514899 0.042670812 0.018078187 -0.014063757 -0.050053865 -0.06436244 0.075291775 -0.06783894 -0.07729386 0.0019592147 0.0369617 -0.023931773 -0.010892699 0.05674241 -0.019878712 -0.1038012 0.04815962 -0.0056151603 -0.07790009 0.010896499 -0.0060411044 0.0136809815 0.038876608 0.04227999 -0.04109723 0.03380558 0.039487503 0.012474097 0.059450123 -0.09156399 -0.08638111 0.030741729 0.02906657 -0.07886995 0.0016511062 0.13300715 0.08074557 0.0031355135 0.02233853 0.031061755 -0.033400897 0.0059140977 0.107658096 0.021458935 0.09628167 0.07058212 0.04783148 -0.025836712 -0.07041718 0.055263776 -0.0155148385 0.016043046 0.12715352 0.03971149 0.06138205 -0.03513471 0.07833449 0.06692871 -0.07337067 0.012308431 0.048559386
one -0.027135532 0.078023985 0.1852604 0.010166434 -0.051534593 0.03912038 0.05783041 0.026616799 0.022152886 0.19293243 -0.07128528 0.072725914 -0.02353806 0.013520523 -0.058562424 -0.11884574 -0.09939961 0.20059477 0.013770949 0.1398859 0.00632223 -0.046500243 0.015887458 -0.14045045 -0.062248383 -0.009073812 0.15805312 -0.09642745 -0.033981524 0.049676128 -0.081252195 0.04823274 -0.0944361 -0.020732585 0.016085599 -0.070282005 -0.12914117 0.029680096 0.020550579 0.123487 0.05497863 0.02667225 -0.017245976 -0.08100531 -0.09057969 0.11699147 -0.093877025 -0.10865558 -0.0024427366 0.047156397 -0.031469434 -0.019363422 0.08264312 -0.026573168 -0.14590581 0.07685974 -0.004034214 -0.11349372 0.017572291 -0.009786662 0.024061149 0.052944854 0.05904535 -0.056214057 0.04818227 0.04915129 0.013460372 0.0857808 -0.13111785 -0.1218955 0.03960861 0.033447284 -0.12610017 0.012865183 0.19058065 0.11456761 0.0028611068 0.037463788 0.03938901 -0.042941593 0.016301906 0.15101707 0.038052842 0.1453413 0.10796977 0.06838336 -0.039666675 -0.10508657 0.08731041 -0.024738332 0.015660627 0.1817698 0.060397036 0.08730325 -0.05143735 0.107098244 0.093478374 -0.10120915 0.024268324 0.06313569
not -0.04389545 0.13093361 0.3009541 0.010124648 -0.08764369 0.06416272 0.09449308 0.048442844 0.034221206 0.31094125 -0.10417002 0.124723844 -0.029810617 0.02739614 -0.09438657 -0.19381176 -0.15599258 0.31847385 0.022500988 0.21386121 0.010236051 -0.08042432 0.021460185 -0.23126462 -0.088052504 -0.015231054 0.25669754 -0.15486908 -0.046603527 0.08602563 -0.123636276 0.077457584 -0.15624873 -0.02312599 0.023420447 -0.1183442 -0.20143928 0.04579002 0.031036152 0.20556143 0.09314381 0.040314652 -0.031416677 -0.1296342 -0.1499397 0.1828595 -0.14662285 -0.16922969 -0.0064240857 0.07519376 -0.047819424 -0.023358794 0.12746102 -0.03838043 -0.23330316 0.11953619 -0.010360253 -0.18246338 0.029043803 -0.012337525 0.040567588 0.080306135 0.09458288 -0.08298785 0.0756876 0.08572788 0.024566583 0.14120503 -0.2209782 -0.19070666 0.060733054 0.06445468 -0.19529898 0.014988984 0.29597622 0.17316242 0.0009072279 0.053947154 0.06703229 -0.06981885 0.022108661 0.24588056 0.06244275 0.22582951 0.168792 0.10746467 -0.07079017 -0.16276596 0.13982283 -0.0314944 0.031414993 0.28419942 0.09731444 0.13897642 -0.08825006 0.17125385 0.14984983 -0.15855654 0.03850875 0.11173819
this -0.037593413 0.09032781 0.21470974 0.010502179 -0.05581366 0.039156653 0.06507877 0.03129392 0.027707681 0.22287172 -0.07013157 0.08731209 -0.027289392 0.018920869 -0.06374696 -0.1332649 -0.10858351 0.22026156 0.01821253 0.1467816 0.0074515813 -0.053176444 0.012903942 -0.16169943 -0.06441999 -0.011226138 0.18561491 -0.10428695 -0.03412067 0.05264448 -0.083158545 0.05626307 -0.10504808 -0.014920976 0.013022849 -0.081063345 -0.1433835 0.037876055 0.019764248 0.14273155 0.061819177 0.03341965 -0.026947305 -0.09097965 -0.1066983 0.12952307 -0.10333715 -0.11448766 0.00074507477 0.05474942 -0.029547606 -0.015492192 0.0857866 -0.027068477 -0.16229843 0.08773211 -0.013891413 -0.12498816 0.02613982 -0.007030728 0.026092118 0.061769266 0.07126005 -0.060348567 0.054426763 0.05345543 0.0145197 0.097305216 -0.14673199 -0.13823837 0.038555227 0.03635781 -0.13107002 0.007517578 0.2077405 0.12441385 0.005984797 0.034296554 0.042130563 -0.042999975 0.018158568 0.17592135 0.03928939 0.15674324 0.117249295 0.07379989 -0.04808524 -0.11226495 0.0927625 -0.024999326 0.020699175 0.19980307 0.07242058 0.09403488 -0.061693415 0.12496765 0.10192581 -0.112188056 0.03061377 0.072951555
total -0.051105317 0.1252833 0.295421 0.0065854774 -0.08809715 0.05555227 0.096613035 0.043136507 0.02929674 0.30248284 -0.09993259 0.11997229 -0.032283615 0.024062745 -0.08585605 -0.191468 -0.14676371 0.30329588 0.02197165 0.20689586 0.003989266 -0.08258229 0.024904516 -0.2287296 -0.08763394 -0.010979497 0.25472355 -0.14723898 -0.047585316 0.08218643 -0.11974153 0.07515394 -0.14844635 -0.024217898 0.020701105 -0.11319178 -0.19969445 0.054195825 0.029895378 0.19615562 0.09237248 0.040386073 -0.03636394 -0.121837065 -0.14682096 0.18319914 -0.14168188 -0.16553193 -0.0017223968 0.0733177 -0.045854233 -0.021173963 0.11933914 -0.043546796 -0.23069388 0.11453072 -0.011269026 -0.174557 0.03523546 -0.006625823 0.033859827 0.082135394 0.08993573 -0.08184064 0.07376801 0.075886846 0.020230459 0.14226732 -0.21382317 -0.18970606 0.05501881 0.058212478 -0.18874073 0.012947066 0.29291737 0.1702252 0.0020773245 0.04710176 0.06795754 -0.066657506 0.015937088 0.24262945 0.0621071 0.22512342 0.1672335 0.10538596 -0.0696783 -0.16066463 0.13434349 -0.034883633 0.030011447 0.28003433 0.09624627 0.1364281 -0.08774886 0.16796851 0.1460738 -0.15305524 0.04015054 0.10427843
they -0.041791774 0.10380281 0.2606373 0.009070607 -0.07432838 0.054333273 0.08847265 0.04236505 0.025855443 0.27392197 -0.09516969 0.10381841 -0.031562492 0.0195446 -0.07395797 -0.17441194 -0.13338429 0.27401286 0.017383773 0.19117826 0.0067317314 -0.07379926 0.02101308 -0.1991792 -0.078741334 -0.016895894 0.22625072 -0.1298748 -0.038831785 0.06987664 -0.10647354 0.066841625 -0.13583314 -0.027266411 0.018409796 -0.10055755 -0.17414041 0.047629923 0.021116054 0.170522 0.08396502 0.0410453 -0.0280805 -0.10491303 -0.12698036 0.16118377 -0.131611 -0.14733417 -0.0020538045 0.06456515 -0.037829913 -0.020786274 0.108843364 -0.03961145 -0.19934554 0.10354231 -0.010004572 -0.15278032 0.025517127 -0.005127164 0.035337064 0.06690052 0.08571831 -0.078285255 0.0667424 0.06933647 0.019786669 0.12693472 -0.18376127 -0.17124157 0.05545928 0.05182242 -0.16353089 0.0072965273 0.26051003 0.15223986 0.008037549 0.04652364 0.05211651 -0.06125725 0.02190995 0.21262161 0.04689856 0.20101649 0.14681631 0.09156412 -0.05409393 -0.14637297 0.11932394 -0.03066653 0.02530789 0.24330628 0.091470435 0.11965262 -0.07223291 0.1524265 0.1274656 -0.13476504 0.033897884 0.096888326
: -0.047260903 0.1304972 0.3115212 0.009431634 -0.088498995 0.06533071 0.09712956 0.049403254 0.03369216 0.32653 -0.10953053 0.1265266 -0.036030415 0.02284071 -0.087016 -0.20464087 -0.1574591 0.32283226 0.024614004 0.22485393 0.010155525 -0.07958351 0.028807687 -0.23532811 -0.09239605 -0.010895247 0.27046925 -0.15865517 -0.047845777 0.08896156 -0.13112827 0.08135351 -0.15878618 -0.030319564 0.023100492 -0.12312733 -0.2138229 0.04856284 0.028339768 0.21027768 0.09663052 0.046285912 -0.037907034 -0.12817518 -0.1512382 0.18805175 -0.15323801 -0.1724247 -0.007051809 0.082297266 -0.04842707 -0.023980532 0.12624018 -0.03972655 -0.24391547 0.12456599 -0.018533733 -0.18179247 0.030888205 -0.0074980166 0.032543976 0.086121894 0.098801725 -0.08908259 0.07834519 0.08850274 0.02545012 0.14490865 -0.22484495 -0.20289944 0.059608284 0.059187308 -0.19713812 0.012656983 0.30126852 0.18572466 0.009814974 0.058323912 0.069609486 -0.068405144 0.022004783 0.25452918 0.0637079 0.24156721 0.1737426 0.11277407 -0.071492575 -0.17428449 0.13810338 -0.030958056 0.029615093 0.2932963 0.09920197 0.1468475 -0.08824091 0.17889085 0.15202968 -0.16381226 0.03969439 0.115724705
coffee -0.03384615 0.08525814 0.21991237 0.010313131 -0.060504552 0.046865273 0.072058976 0.036570363 0.022183836 0.22235274 -0.07202498 0.08847402 -0.022839727 0.013018188 -0.062003814 -0.14528158 -0.11441752 0.22453289 0.0145688895 0.15021169 0.0017068661 -0.06240101 0.02132074 -0.16684097 -0.06735716 -0.007048099 0.18470131 -0.10800629 -0.037951007 0.05361649 -0.08935181 0.05276777 -0.10490601 -0.024955425 0.020911561 -0.08015617 -0.15156923 0.037222188 0.014066049 0.14894561 0.071883485 0.034415845 -0.026457734 -0.08720918 -0.104875505 0.13295875 -0.10578054 -0.12186145 -0.0040415376 0.04949809 -0.035585452 -0.017076727 0.08865381 -0.027654124 -0.1649174 0.08184817 -0.01063762 -0.12938127 0.02025324 -0.0033339635 0.023559067 0.060650975 0.074039 -0.059834916 0.04851229 0.05455347 0.014412277 0.0969748 -0.15090887 -0.13902198 0.047194716 0.04383886 -0.1419952 0.014588127 0.20753612 0.12721984 0.0010750289 0.034889314 0.049359344 -0.04763722 0.012846216 0.17908514 0.04522974 0.16565551 0.11756052 0.08010604 -0.04545989 -0.11583878 0.10039325 -0.019875966 0.02443832 0.19971728 0.07607955 0.09854496 -0.0594772 0.12538554 0.10752311 -0.11826682 0.024201227 0.07458278
yield -0.053158484 0.1303605 0.31124154 0.010424553 -0.08689307 0.06638664 0.099478796 0.049274977 0.036760405 0.31855446 -0.111169256 0.12509732 -0.03131926 0.020825984 -0.0922802 -0.2055337 -0.15639128 0.3241652 0.023990594 0.21801628 0.009104389 -0.08144774 0.024957035 -0.23585495 -0.09616228 -0.016753742 0.26695353 -0.15819333 -0.0543119 0.07912316 -0.13122483 0.07769675 -0.15176573 -0.03005818 0.025742179 -0.116237134 -0.20624359 0.04725149 0.023922518 0.21013826 0.098190434 0.047159072 -0.03526718 -0.12487657 -0.15171114 0.18837976 -0.1501907 -0.17062807 -0.0017948262 0.078287534 -0.04927935 -0.031488024 0.13029183 -0.038935937 -0.2447565 0.12731943 -0.01725344 -0.18116006 0.029398294 -0.008228436 0.03665254 0.08483805 0.09393233 -0.089840494 0.072284415 0.08573292 0.020259716 0.1492168 -0.21819064 -0.20173906 0.062705986 0.05765681 -0.19859383 0.013011149 0.30321258 0.17777608 0.0020586269 0.049211185 0.068479426 -0.064186215 0.020904802 0.25658554 0.058938783 0.23334777 0.17374273 0.10959002 -0.070558734 -0.17154303 0.14321055 -0.035147432 0.037430804 0.29034442 0.10409985 0.13908267 -0.092179365 0.17918222 0.15433334 -0.16630821 0.036399744 0.11025649
growth -0.03550024 0.08565252 0.19748828 0.00881315 -0.055233374 0.038546965 0.0679284 0.03578907 0.02287439 0.2138622 -0.067808695 0.07911855 -0.019241352 0.019539803 -0.063994184 -0.13221829 -0.105214596 0.2043963 0.019183585 0.15014724 0.0027394241 -0.051393583 0.015870694 -0.14985627 -0.056444127 -0.01058725 0.17486358 -0.10911133 -0.02820778 0.053903252 -0.080565624 0.055126656 -0.10519927 -0.02155625 0.018166695 -0.07355344 -0.14068456 0.037373755 0.019458933 0.1385254 0.06081905 0.033593442 -0.023457823 -0.088959105 -0.09928968 0.12663676 -0.10083201 -0.11798419 -0.001980017 0.047932692 -0.027643874 -0.014291105 0.08608653 -0.023337936 -0.1599975 0.084505014 -0.009691316 -0.12339523 0.023095317 -0.007672546 0.025808126 0.05110477 0.06753908 -0.055561762 0.04723887 0.05385403 0.019446988 0.096673265 -0.14390859 -0.13415562 0.044583786 0.04368034 -0.13214523 0.005822547 0.2028381 0.119526625 0.007898036 0.03142296 0.04824228 -0.0410535 0.018177798 0.16117342 0.036812916 0.15148216 0.111099094 0.078833446 -0.047607232 -0.11184504 0.088341996 -0.021277657 0.018002333 0.19298486 0.06578609 0.09488284 -0.05886392 0.11509826 0.09839093 -0.11111599 0.026019502 0.07601827
there -0.030683266 0.082450934 0.20354635 0.005220175 -0.05966252 0.03656041 0.06659209 0.029514795 0.02227326 0.21671915 -0.0751324 0.08090791 -0.01964821 0.014552134 -0.056867357 -0.13246645 -0.10627742 0.20829237 0.017567327 0.14779511 0.00680489 -0.05042409 0.014323085 -0.15224637 -0.06528671 -0.012566478 0.17713057 -0.10324212 -0.030767065 0.053659294 -0.08901756 0.048874598 -0.10326486 -0.020837743 0.018970817 -0.0790378 -0.13524762 0.033594362 0.017729476 0.13283955 0.059301917 0.03349222 -0.022750046 -0.088461496 -0.105264544 0.12126691 -0.100072436 -0.1187241 0.0009927092 0.047822807 -0.033880062 -0.013076675 0.08299372 -0.030024568 -0.15636772 0.07935444 -0.007555786 -0.121376306 0.025414295 -0.0019821585 0.026433617 0.058541067 0.06851948 -0.05950103 0.048455127 0.05987479 0.014857425 0.10008417 -0.14846717 -0.1317526 0.04172992 0.035382833 -0.13142677 0.008234814 0.20510815 0.11792075 -0.00090960716 0.03555885 0.047982853 -0.04275932 0.016820267 0.1707581 0.044297762 0.15603055 0.11500483 0.07795023 -0.04291472 -0.11647087 0.09449763 -0.026088456 0.019967502 0.18939918 0.07187845 0.08930394 -0.06021975 0.11961055 0.09882174 -0.11095996 0.0244474 0.0724548
